%YAML:1.0
---
opencv_ml_svm:
   format: 3
   svmType: C_SVC
   kernel:
      type: RBF
      gamma: 5.0624999999999998e-01
   C: 1.2500000000000000e+01
   term_criteria: { epsilon:1.1920928955078125e-07, iterations:1000 }
   var_count: 324
   class_count: 2
   class_labels: !!opencv-matrix
      rows: 2
      cols: 1
      dt: i
      data: [ 0, 1 ]
   sv_total: 415
   support_vectors:
      - [ 3.81901592e-01, 3.81901592e-01, 3.81901592e-01, 3.81901592e-01,
          1.85465321e-01, 3.81901592e-01, 3.81901592e-01, 1.12564594e-01,
          2.72072345e-01, 5.42373836e-01, 1.76650152e-01, 9.03206468e-02,
          1.75485373e-01, 5.42373836e-01, 1.61625132e-01, 9.31390896e-02,
          8.43777433e-02, 5.42373836e-01, 5.68044066e-01, 5.56120904e-05,
          1.66836267e-04, 7.16440901e-02, 5.68044066e-01, 1.43371210e-01,
          2.47314740e-02, 2.38298904e-03, 5.68044066e-01, 2.90007979e-01,
          3.90608430e-01, 3.90608430e-01, 3.90608430e-01, 3.58695537e-01,
          3.90608430e-01, 3.90608430e-01, 1.40861079e-01, 2.47811172e-02,
          2.74612486e-01, 2.44693398e-01, 2.90243298e-01, 3.79494488e-01,
          3.79494488e-01, 3.79494488e-01, 3.79494488e-01, 3.79494488e-01,
          2.37908363e-01, 7.68360198e-02, 1.32042482e-01, 2.44097188e-01,
          2.94532210e-01, 4.74310547e-01, 4.74310547e-01, 4.74310547e-01,
          3.82369667e-01, 6.68800622e-02, 3.66662353e-01, 3.66662353e-01,
          3.66662353e-01, 2.43988842e-01, 3.66662353e-01, 2.23832130e-01,
          3.66662353e-01, 3.66662353e-01, 2.82944441e-01, 2.26227418e-01,
          2.35622078e-01, 3.78967434e-01, 3.32855016e-01, 3.78967434e-01,
          2.83706725e-01, 3.78967434e-01, 3.78967434e-01, 3.51809740e-01,
          7.63605610e-02, 3.03996831e-01, 5.05887806e-01, 8.63193646e-02,
          1.17445119e-01, 2.03371406e-01, 5.05887806e-01, 5.05887806e-01,
          2.57547706e-01, 3.66662353e-01, 3.66662353e-01, 3.66662353e-01,
          2.43988842e-01, 3.66662353e-01, 2.23832130e-01, 3.66662353e-01,
          3.66662353e-01, 2.82944441e-01, 2.26227418e-01, 2.35622078e-01,
          3.78967434e-01, 3.32855016e-01, 3.78967434e-01, 2.83706725e-01,
          3.78967434e-01, 3.78967434e-01, 3.51809740e-01, 7.63605610e-02,
          3.03996831e-01, 5.05887806e-01, 8.63193646e-02, 1.17445119e-01,
          2.03371406e-01, 5.05887806e-01, 5.05887806e-01, 2.57547706e-01,
          3.16954195e-01, 3.63222599e-01, 3.63222599e-01, 7.13177547e-02,
          3.63222599e-01, 3.15025300e-01, 3.63222599e-01, 3.63222599e-01,
          3.63222599e-01, 2.39670202e-01, 3.72442245e-01, 3.72442245e-01,
          2.14645088e-01, 2.45937690e-01, 3.72442245e-01, 3.72442245e-01,
          3.72442245e-01, 3.72442245e-01, 5.95104881e-02, 3.23118299e-01,
          5.33159196e-01, 5.27068898e-02, 2.02099923e-02, 1.12120956e-01,
          5.33159196e-01, 5.33159196e-01, 1.34887934e-01, 4.38300371e-01,
          1.91877067e-01, 2.44442806e-01, 4.14483733e-02, 1.53814793e-01,
          1.84167385e-01, 3.50918084e-01, 5.11749268e-01, 5.11749268e-01,
          2.49976933e-01, 3.58603388e-01, 3.73069763e-01, 2.61112154e-01,
          2.02739403e-01, 3.73069763e-01, 3.73069763e-01, 3.73069763e-01,
          3.73069763e-01, 1.47825524e-01, 4.74279851e-01, 4.74279851e-01,
          5.87987974e-02, 8.44652951e-02, 2.26556569e-01, 4.74279851e-01,
          4.74279851e-01, 1.08284056e-01, 5.68044066e-01, 5.56120904e-05,
          1.66836267e-04, 7.16440901e-02, 5.68044066e-01, 1.43371210e-01,
          2.47314740e-02, 2.38298904e-03, 5.68044066e-01, 5.73807478e-01,
          6.63464665e-02, 2.14467216e-02, 4.01520617e-02, 5.73807478e-01,
          5.56056108e-03, 3.45589506e-04, 1.15196504e-04, 5.73807478e-01,
          5.12626767e-01, 3.19562256e-01, 2.56856233e-01, 1.14560962e-01,
          5.12626767e-01, 1.46076363e-02, 1.84915699e-02, 1.57312050e-01,
          5.12626767e-01, 7.68360198e-02, 1.32042482e-01, 2.44097188e-01,
          2.94532210e-01, 4.74310547e-01, 4.74310547e-01, 4.74310547e-01,
          3.82369667e-01, 6.68800622e-02, 9.71542150e-02, 3.62223201e-02,
          4.75791991e-02, 2.57150382e-01, 9.42095697e-01, 1.12088256e-01,
          1.58826765e-02, 1.31228128e-02, 1.04535058e-01, 5.07326499e-02,
          7.60086300e-03, 9.08147469e-02, 4.50493187e-01, 8.78503263e-01,
          2.34555099e-02, 1.03520099e-02, 2.59488188e-02, 6.56704083e-02,
          7.63605610e-02, 3.03996831e-01, 5.05887806e-01, 8.63193646e-02,
          1.17445119e-01, 2.03371406e-01, 5.05887806e-01, 5.05887806e-01,
          2.57547706e-01, 3.82800251e-01, 3.82800251e-01, 2.93184757e-01,
          1.07379943e-01, 3.64434958e-01, 3.04767430e-01, 2.94699699e-01,
          3.82800251e-01, 3.82800251e-01, 4.13739026e-01, 4.13739026e-01,
          4.13739026e-01, 3.64739418e-01, 4.13739026e-01, 1.34565607e-02,
          4.51346859e-03, 8.20404962e-02, 4.13739026e-01, 7.63605610e-02,
          3.03996831e-01, 5.05887806e-01, 8.63193646e-02, 1.17445119e-01,
          2.03371406e-01, 5.05887806e-01, 5.05887806e-01, 2.57547706e-01,
          3.82800251e-01, 3.82800251e-01, 2.93184757e-01, 1.07379943e-01,
          3.64434958e-01, 3.04767430e-01, 2.94699699e-01, 3.82800251e-01,
          3.82800251e-01, 4.13739026e-01, 4.13739026e-01, 4.13739026e-01,
          3.64739418e-01, 4.13739026e-01, 1.34565607e-02, 4.51346859e-03,
          8.20404962e-02, 4.13739026e-01, 5.95104881e-02, 3.23118299e-01,
          5.33159196e-01, 5.27068898e-02, 2.02099923e-02, 1.12120956e-01,
          5.33159196e-01, 5.33159196e-01, 1.34887934e-01, 3.15254092e-01,
          2.81842500e-01, 4.52974856e-01, 1.77545343e-02, 5.61274495e-03,
          9.86129884e-03, 4.52974856e-01, 4.52974856e-01, 4.47942525e-01,
          6.81477249e-01, 6.81477249e-01, 1.87029749e-01, 5.53062707e-02,
          9.16338898e-03, 1.24534983e-02, 3.56525667e-02, 9.37776268e-02,
          1.26613468e-01, 1.47825524e-01, 4.74279851e-01, 4.74279851e-01,
          5.87987974e-02, 8.44652951e-02, 2.26556569e-01, 4.74279851e-01,
          4.74279851e-01, 1.08284056e-01, 5.25970519e-01, 5.22033036e-01,
          2.57798314e-01, 2.89339293e-03, 0., 1.19760058e-04,
          2.31356621e-01, 2.31248230e-01, 5.21645367e-01, 7.02265680e-01,
          7.02265680e-01, 2.37461855e-03, 0., 0., 7.37032387e-05,
          2.35833949e-03, 1.12856645e-02, 8.06043372e-02 ]
      - [ 1.31504154e-02, 0., 5.52124018e-03, 3.92297767e-02,
          9.80268538e-01, 1.23773262e-01, 4.08924110e-02, 1.36308027e-02,
          1.31504154e-02, 1.34216426e-02, 0., 4.02410660e-04,
          1.31021775e-02, 6.95989728e-01, 6.95989728e-01, 1.54287294e-01,
          7.59481033e-03, 5.89575153e-03, 3.35539967e-01, 1.85632274e-01,
          0., 6.51130546e-03, 6.33486152e-01, 6.33486152e-01,
          1.67991921e-01, 2.29915814e-03, 1.25501275e-01, 3.02375019e-01,
          1.81765944e-01, 7.62351629e-05, 4.41253046e-03, 6.44433916e-01,
          6.44433916e-01, 1.48434088e-01, 5.16513304e-04, 1.28272623e-01,
          4.81265306e-01, 4.81265306e-01, 7.67236561e-05, 1.57659966e-02,
          4.81265306e-01, 4.81265306e-01, 1.50635198e-01, 1.18835801e-02,
          2.13652179e-01, 4.58849490e-01, 4.58849490e-01, 5.26339572e-04,
          9.09716450e-03, 4.58849490e-01, 4.58849490e-01, 8.36388171e-02,
          8.92654713e-03, 3.82213563e-01, 3.69881719e-01, 3.69881719e-01,
          3.69881719e-01, 3.69881719e-01, 3.69881719e-01, 3.69881719e-01,
          3.59469503e-02, 1.93196505e-01, 3.69881719e-01, 3.91927242e-01,
          3.91927242e-01, 5.20849936e-02, 3.91927242e-01, 3.91927242e-01,
          2.25382611e-01, 3.91927242e-01, 1.44681126e-01, 3.91927242e-01,
          5.15819192e-01, 1.40302628e-01, 7.14014657e-03, 9.47732329e-02,
          5.15819192e-01, 2.59748429e-01, 2.88546801e-01, 1.31125152e-01,
          5.15819192e-01, 3.69881719e-01, 3.69881719e-01, 3.69881719e-01,
          3.69881719e-01, 3.69881719e-01, 3.69881719e-01, 3.59469503e-02,
          1.93196505e-01, 3.69881719e-01, 3.91927242e-01, 3.91927242e-01,
          5.20849936e-02, 3.91927242e-01, 3.91927242e-01, 2.25382611e-01,
          3.91927242e-01, 1.44681126e-01, 3.91927242e-01, 5.15819192e-01,
          1.40302628e-01, 7.14014657e-03, 9.47732329e-02, 5.15819192e-01,
          2.59748429e-01, 2.88546801e-01, 1.31125152e-01, 5.15819192e-01,
          3.16877484e-01, 4.65878658e-02, 1.11126125e-01, 4.60411698e-01,
          3.57505530e-01, 8.23712721e-03, 1.09618728e-03, 5.19625604e-01,
          5.19625604e-01, 3.25017363e-01, 2.07502255e-03, 6.94818199e-02,
          4.68227446e-01, 4.68227446e-01, 1.57947298e-02, 8.75084251e-02,
          4.68227446e-01, 4.68227446e-01, 4.64686871e-01, 9.29459813e-04,
          7.95986876e-02, 4.64686871e-01, 4.64686871e-01, 1.52152786e-02,
          6.85300454e-02, 3.46926957e-01, 4.64686871e-01, 4.22415793e-01,
          1.17290402e-02, 9.52303875e-03, 0., 3.57623622e-02, 0., 0.,
          6.37843847e-01, 6.37843847e-01, 4.15774822e-01, 1.10304810e-03,
          1.06260488e-02, 1.83406070e-01, 1.36667445e-01, 1.22952014e-02,
          1.25911750e-03, 6.19822562e-01, 6.19822562e-01, 3.16670537e-01,
          6.97420619e-04, 4.56629544e-02, 4.92847174e-01, 4.04596537e-01,
          1.78427733e-02, 1.68113926e-04, 4.92847174e-01, 4.92847174e-01,
          3.35539967e-01, 1.85632274e-01, 0., 6.51130546e-03,
          6.33486152e-01, 6.33486152e-01, 1.67991921e-01, 2.29915814e-03,
          1.25501275e-01, 4.76473093e-01, 4.76473093e-01, 2.39692905e-04,
          4.36902512e-03, 4.76473093e-01, 4.76473093e-01, 1.03681147e-01,
          7.70840707e-05, 2.76343375e-01, 4.17328328e-01, 4.17328328e-01,
          1.51994277e-03, 1.18024433e-02, 4.17328328e-01, 4.17328328e-01,
          3.76255572e-01, 1.89489484e-01, 3.48659217e-01, 4.58849490e-01,
          4.58849490e-01, 5.26339572e-04, 9.09716450e-03, 4.58849490e-01,
          4.58849490e-01, 8.36388171e-02, 8.92654713e-03, 3.82213563e-01,
          4.50860471e-01, 4.50860471e-01, 1.91730354e-03, 1.33095272e-02,
          4.50860471e-01, 4.50860471e-01, 5.86698838e-02, 2.38081394e-03,
          4.22808856e-01, 4.39216226e-01, 2.50950903e-01, 3.54997605e-01,
          9.38863866e-03, 4.39216226e-01, 6.85983300e-02, 4.39216226e-01,
          2.98274398e-01, 3.66222650e-01, 5.15819192e-01, 1.40302628e-01,
          7.14014657e-03, 9.47732329e-02, 5.15819192e-01, 2.59748429e-01,
          2.88546801e-01, 1.31125152e-01, 5.15819192e-01, 4.03435141e-01,
          4.03435141e-01, 2.77335532e-02, 4.03435141e-01, 4.03435141e-01,
          4.03435141e-01, 3.78915742e-02, 1.31168991e-01, 4.03435141e-01,
          4.22115654e-01, 1.67108357e-01, 3.57284755e-01, 1.40392154e-01,
          4.22115654e-01, 4.48359884e-02, 4.22115654e-01, 3.25205922e-01,
          4.22115654e-01, 5.15819192e-01, 1.40302628e-01, 7.14014657e-03,
          9.47732329e-02, 5.15819192e-01, 2.59748429e-01, 2.88546801e-01,
          1.31125152e-01, 5.15819192e-01, 4.03435141e-01, 4.03435141e-01,
          2.77335532e-02, 4.03435141e-01, 4.03435141e-01, 4.03435141e-01,
          3.78915742e-02, 1.31168991e-01, 4.03435141e-01, 4.22115654e-01,
          1.67108357e-01, 3.57284755e-01, 1.40392154e-01, 4.22115654e-01,
          4.48359884e-02, 4.22115654e-01, 3.25205922e-01, 4.22115654e-01,
          4.64686871e-01, 9.29459813e-04, 7.95986876e-02, 4.64686871e-01,
          4.64686871e-01, 1.52152786e-02, 6.85300454e-02, 3.46926957e-01,
          4.64686871e-01, 4.45327610e-01, 8.46343755e-04, 6.28987029e-02,
          4.45327610e-01, 4.45327610e-01, 3.35000968e-03, 4.51972337e-05,
          4.45327610e-01, 4.45327610e-01, 4.09708709e-01, 2.12151095e-01,
          3.78743321e-01, 2.19447404e-01, 4.09708709e-01, 3.46095418e-03,
          4.09708709e-01, 2.96375841e-01, 4.09708709e-01, 3.16670537e-01,
          6.97420619e-04, 4.56629544e-02, 4.92847174e-01, 4.04596537e-01,
          1.78427733e-02, 1.68113926e-04, 4.92847174e-01, 4.92847174e-01,
          2.65289783e-01, 1.96278401e-04, 1.13248311e-01, 4.77496475e-01,
          4.77496475e-01, 3.90688609e-03, 7.05363491e-05, 4.77496475e-01,
          4.77496475e-01, 1.48388520e-01, 1.00062659e-03, 8.15202147e-02,
          4.48113024e-01, 4.48113024e-01, 4.87825945e-02, 4.48113024e-01,
          4.01568770e-01, 4.48113024e-01 ]
      - [ 3.67952347e-01, 4.21221972e-01, 4.21221972e-01, 2.61114866e-01,
          7.28502721e-02, 1.08800493e-01, 4.21221972e-01, 4.21221972e-01,
          2.55667180e-01, 3.80750209e-01, 4.02771562e-01, 4.02771562e-01,
          2.12710649e-01, 2.55503058e-01, 1.99113637e-01, 4.02771562e-01,
          4.02771562e-01, 2.27885827e-01, 3.94124478e-01, 4.20025498e-01,
          4.20025498e-01, 1.43166959e-01, 1.50473446e-01, 2.55829096e-01,
          4.20025498e-01, 4.20025498e-01, 1.61854461e-01, 3.54405195e-01,
          3.25655490e-01, 3.54405195e-01, 3.54405195e-01, 3.45220089e-01,
          1.32711917e-01, 3.54405195e-01, 3.54405195e-01, 3.54405195e-01,
          1.63353816e-01, 4.06277627e-01, 4.06277627e-01, 5.61864935e-02,
          1.41957939e-01, 3.73563200e-01, 4.06277627e-01, 4.06277627e-01,
          3.82298917e-01, 2.60288298e-01, 4.66303259e-01, 4.66303259e-01,
          3.35990228e-02, 2.30460539e-02, 5.06971702e-02, 4.66303259e-01,
          4.66303259e-01, 2.31532723e-01, 2.54078865e-01, 3.54247004e-01,
          3.54247004e-01, 3.54247004e-01, 3.54247004e-01, 3.54247004e-01,
          3.54247004e-01, 3.54247004e-01, 2.31231317e-01, 1.59986794e-01,
          3.98049623e-01, 3.98049623e-01, 1.96830541e-01, 2.82519639e-01,
          3.98049623e-01, 3.98049623e-01, 3.98049623e-01, 2.44234711e-01,
          9.45786089e-02, 4.39486116e-01, 4.39486116e-01, 2.70588011e-01,
          2.93237031e-01, 1.43484250e-01, 4.39486116e-01, 4.39486116e-01,
          1.85146332e-01, 2.54078865e-01, 3.54247004e-01, 3.54247004e-01,
          3.54247004e-01, 3.54247004e-01, 3.54247004e-01, 3.54247004e-01,
          3.54247004e-01, 2.31231317e-01, 1.59986794e-01, 3.98049623e-01,
          3.98049623e-01, 1.96830541e-01, 2.82519639e-01, 3.98049623e-01,
          3.98049623e-01, 3.98049623e-01, 2.44234711e-01, 9.45786089e-02,
          4.39486116e-01, 4.39486116e-01, 2.70588011e-01, 2.93237031e-01,
          1.43484250e-01, 4.39486116e-01, 4.39486116e-01, 1.85146332e-01,
          2.00457379e-01, 3.89252216e-01, 3.89252216e-01, 3.89252216e-01,
          3.89252216e-01, 2.55534202e-01, 2.92528093e-01, 3.89252216e-01,
          2.17878893e-01, 3.65959853e-01, 3.28313738e-01, 3.65959853e-01,
          3.41256559e-01, 2.43029103e-01, 2.08330169e-01, 3.65959853e-01,
          3.65959853e-01, 3.65959853e-01, 3.13088357e-01, 3.18857819e-01,
          4.27207559e-01, 4.27207559e-01, 2.83860952e-01, 2.06738934e-01,
          4.27207559e-01, 3.20123315e-01, 1.50738195e-01, 3.78026873e-01,
          3.78026873e-01, 3.78026873e-01, 3.78026873e-01, 3.78026873e-01,
          3.78026873e-01, 1.63429141e-01, 8.72666389e-02, 3.23222697e-01,
          2.87313461e-01, 3.89388949e-01, 3.55848372e-01, 2.71986306e-01,
          3.89388949e-01, 3.89388949e-01, 3.89388949e-01, 2.06605107e-01,
          2.52538472e-01, 3.61683697e-01, 3.61683697e-01, 3.61683697e-01,
          3.61683697e-01, 3.61683697e-01, 3.61683697e-01, 3.23750407e-01,
          7.26659894e-02, 3.18435520e-01, 3.94124478e-01, 4.20025498e-01,
          4.20025498e-01, 1.43166959e-01, 1.50473446e-01, 2.55829096e-01,
          4.20025498e-01, 4.20025498e-01, 1.61854461e-01, 1.92444175e-01,
          4.20740604e-01, 4.20740604e-01, 3.87380458e-02, 9.33963209e-02,
          4.20740604e-01, 4.20740604e-01, 4.20740604e-01, 2.51844108e-01,
          4.74786967e-01, 4.74786967e-01, 4.74786967e-01, 4.74786967e-01,
          8.48755985e-02, 4.10464294e-02, 1.38315871e-01, 8.16850141e-02,
          2.42641374e-01, 2.60288298e-01, 4.66303259e-01, 4.66303259e-01,
          3.35990228e-02, 2.30460539e-02, 5.06971702e-02, 4.66303259e-01,
          4.66303259e-01, 2.31532723e-01, 4.09415722e-01, 4.15772676e-01,
          4.11365837e-01, 2.04739451e-01, 7.33631849e-02, 6.52024597e-02,
          4.15772676e-01, 4.15772676e-01, 2.98078746e-01, 1.79917946e-01,
          4.73679543e-01, 4.73679543e-01, 4.73679543e-01, 4.73679543e-01,
          4.87904362e-02, 8.25635567e-02, 1.33863002e-01, 1.95684522e-01,
          9.45786089e-02, 4.39486116e-01, 4.39486116e-01, 2.70588011e-01,
          2.93237031e-01, 1.43484250e-01, 4.39486116e-01, 4.39486116e-01,
          1.85146332e-01, 4.18818682e-01, 4.18818682e-01, 1.09138861e-01,
          3.75510640e-02, 2.18683705e-02, 3.28175098e-01, 4.18818682e-01,
          4.18818682e-01, 4.15549457e-01, 3.95333230e-01, 3.95333230e-01,
          3.95333230e-01, 3.36593807e-01, 2.34572828e-01, 6.24152608e-02,
          2.05896527e-01, 3.95333230e-01, 3.95333230e-01, 9.45786089e-02,
          4.39486116e-01, 4.39486116e-01, 2.70588011e-01, 2.93237031e-01,
          1.43484250e-01, 4.39486116e-01, 4.39486116e-01, 1.85146332e-01,
          4.18818682e-01, 4.18818682e-01, 1.09138861e-01, 3.75510640e-02,
          2.18683705e-02, 3.28175098e-01, 4.18818682e-01, 4.18818682e-01,
          4.15549457e-01, 3.95333230e-01, 3.95333230e-01, 3.95333230e-01,
          3.36593807e-01, 2.34572828e-01, 6.24152608e-02, 2.05896527e-01,
          3.95333230e-01, 3.95333230e-01, 3.13088357e-01, 3.18857819e-01,
          4.27207559e-01, 4.27207559e-01, 2.83860952e-01, 2.06738934e-01,
          4.27207559e-01, 3.20123315e-01, 1.50738195e-01, 3.88448477e-01,
          3.88448477e-01, 3.56147289e-01, 2.92611271e-01, 8.36653113e-02,
          1.48983836e-01, 3.88448477e-01, 3.88448477e-01, 3.88448477e-01,
          4.04511303e-01, 3.41492444e-01, 4.04511303e-01, 4.04511303e-01,
          1.59600735e-01, 3.11287418e-02, 1.86423033e-01, 4.04511303e-01,
          4.04511303e-01, 3.61683697e-01, 3.61683697e-01, 3.61683697e-01,
          3.61683697e-01, 3.61683697e-01, 3.61683697e-01, 3.23750407e-01,
          7.26659894e-02, 3.18435520e-01, 3.83980721e-01, 3.83980721e-01,
          3.83980721e-01, 3.83980721e-01, 3.83980721e-01, 3.83980721e-01,
          2.20032319e-01, 1.93605781e-01, 1.60060063e-01, 1.46445006e-01,
          4.60421234e-01, 4.60421234e-01, 2.09347218e-01, 1.51114434e-01,
          1.40749112e-01, 1.98826432e-01, 4.60421234e-01, 4.60421234e-01 ]
      - [ 5.19023180e-01, 5.19023180e-01, 5.19023180e-01, 3.02991688e-01,
          6.00016043e-02, 1.47721723e-01, 9.70650464e-02, 2.08502728e-02,
          2.44088352e-01, 4.03830826e-01, 4.03830826e-01, 4.03830826e-01,
          1.72668844e-01, 1.98313799e-02, 3.69539887e-01, 3.60332370e-01,
          2.16890559e-01, 4.03830826e-01, 4.61086661e-01, 3.42810124e-01,
          1.46219090e-01, 2.44683749e-03, 7.29708672e-02, 4.61086661e-01,
          4.38651204e-01, 1.44731820e-01, 4.61086661e-01, 4.97841567e-01,
          4.97841567e-01, 4.97841567e-01, 1.94649339e-01, 1.32391289e-01,
          6.60385415e-02, 1.01939954e-01, 4.77484688e-02, 4.23132002e-01,
          5.75078249e-01, 1.63610205e-01, 1.90188438e-01, 1.94329098e-01,
          4.15430665e-01, 1.52385443e-01, 1.71413183e-01, 8.32915902e-02,
          5.75078249e-01, 4.49158877e-01, 1.07799187e-01, 2.73885936e-01,
          2.50547081e-01, 4.49158877e-01, 1.89797178e-01, 3.86722744e-01,
          2.35152885e-01, 4.49158877e-01, 1.27652898e-01, 4.28284496e-01,
          4.28284496e-01, 3.07254940e-01, 2.31307715e-01, 2.70648241e-01,
          4.28284496e-01, 4.21067297e-01, 1.75175905e-01, 6.00376166e-02,
          3.67239833e-01, 3.67239833e-01, 3.67239833e-01, 3.67239833e-01,
          3.67239833e-01, 3.67239833e-01, 3.67239833e-01, 2.20614448e-01,
          2.87247986e-01, 3.38029474e-01, 3.38029474e-01, 3.38029474e-01,
          3.38029474e-01, 3.38029474e-01, 3.38029474e-01, 3.38029474e-01,
          3.38029474e-01, 1.27652898e-01, 4.28284496e-01, 4.28284496e-01,
          3.07254940e-01, 2.31307715e-01, 2.70648241e-01, 4.28284496e-01,
          4.21067297e-01, 1.75175905e-01, 6.00376166e-02, 3.67239833e-01,
          3.67239833e-01, 3.67239833e-01, 3.67239833e-01, 3.67239833e-01,
          3.67239833e-01, 3.67239833e-01, 2.20614448e-01, 2.87247986e-01,
          3.38029474e-01, 3.38029474e-01, 3.38029474e-01, 3.38029474e-01,
          3.38029474e-01, 3.38029474e-01, 3.38029474e-01, 3.38029474e-01,
          1.24710478e-01, 4.59032297e-01, 4.60074663e-01, 3.47813725e-01,
          6.29583448e-02, 9.09149796e-02, 4.60074663e-01, 4.48363364e-01,
          1.07565805e-01, 3.80664527e-01, 3.80664527e-01, 3.80664527e-01,
          3.09223115e-01, 1.10009067e-01, 1.37997285e-01, 3.80664527e-01,
          3.80664527e-01, 3.80664527e-01, 3.46162111e-01, 3.46162111e-01,
          3.46162111e-01, 2.60088354e-01, 3.46162111e-01, 3.00163239e-01,
          3.46162111e-01, 3.46162111e-01, 3.46162111e-01, 2.22280875e-01,
          1.38111785e-01, 4.56818312e-01, 4.56818312e-01, 4.56818312e-01,
          7.26361945e-02, 4.44285840e-01, 2.58317500e-01, 1.77512631e-01,
          2.35923946e-01, 8.21295306e-02, 2.06988320e-01, 5.33161044e-01,
          5.33161044e-01, 5.33161044e-01, 1.12781823e-01, 7.94296563e-02,
          1.32722437e-01, 1.57712027e-01, 1.91262111e-01, 2.36289516e-01,
          4.03732002e-01, 5.51309586e-01, 5.51309586e-01, 2.15749919e-01,
          8.29545930e-02, 2.29986846e-01, 4.61086661e-01, 3.42810124e-01,
          1.46219090e-01, 2.44683749e-03, 7.29708672e-02, 4.61086661e-01,
          4.38651204e-01, 1.44731820e-01, 4.61086661e-01, 6.03882492e-01,
          4.73013401e-01, 9.40443650e-02, 1.71888224e-03, 1.56338885e-02,
          1.17658582e-02, 1.38875902e-01, 1.11193672e-01, 6.03882492e-01,
          4.76456314e-01, 4.76456314e-01, 5.13767675e-02, 4.95530106e-03,
          6.45306632e-02, 1.75292119e-01, 3.39458227e-01, 4.01773095e-01,
          4.76456314e-01, 4.49158877e-01, 1.07799187e-01, 2.73885936e-01,
          2.50547081e-01, 4.49158877e-01, 1.89797178e-01, 3.86722744e-01,
          2.35152885e-01, 4.49158877e-01, 4.33673829e-01, 8.08075443e-02,
          2.09974885e-01, 1.60419375e-01, 3.39177161e-01, 4.33673829e-01,
          4.33673829e-01, 2.27993846e-01, 4.33673829e-01, 3.55057627e-01,
          1.87467217e-01, 3.55057627e-01, 3.55057627e-01, 3.55057627e-01,
          3.55057627e-01, 3.55057627e-01, 3.55057627e-01, 2.80797571e-01,
          2.87247986e-01, 3.38029474e-01, 3.38029474e-01, 3.38029474e-01,
          3.38029474e-01, 3.38029474e-01, 3.38029474e-01, 3.38029474e-01,
          3.38029474e-01, 3.42105329e-01, 3.48499596e-01, 3.56619775e-01,
          2.53344655e-01, 3.56619775e-01, 3.36607486e-01, 3.56619775e-01,
          3.56619775e-01, 2.67862260e-01, 1.05955280e-01, 3.53354782e-01,
          4.33435053e-01, 3.37420553e-01, 1.63005322e-01, 3.77340764e-01,
          4.33435053e-01, 4.33435053e-01, 1.14791200e-01, 2.87247986e-01,
          3.38029474e-01, 3.38029474e-01, 3.38029474e-01, 3.38029474e-01,
          3.38029474e-01, 3.38029474e-01, 3.38029474e-01, 3.38029474e-01,
          3.42105329e-01, 3.48499596e-01, 3.56619775e-01, 2.53344655e-01,
          3.56619775e-01, 3.36607486e-01, 3.56619775e-01, 3.56619775e-01,
          2.67862260e-01, 1.05955280e-01, 3.53354782e-01, 4.33435053e-01,
          3.37420553e-01, 1.63005322e-01, 3.77340764e-01, 4.33435053e-01,
          4.33435053e-01, 1.14791200e-01, 3.46162111e-01, 3.46162111e-01,
          3.46162111e-01, 2.60088354e-01, 3.46162111e-01, 3.00163239e-01,
          3.46162111e-01, 3.46162111e-01, 3.46162111e-01, 2.40003794e-01,
          4.09212321e-01, 4.09212321e-01, 3.73332769e-01, 1.30045652e-01,
          1.44739300e-01, 4.09212321e-01, 4.09212321e-01, 3.02080452e-01,
          1.97414547e-01, 4.28016633e-01, 4.28016633e-01, 3.59313548e-01,
          6.97034150e-02, 2.39095643e-01, 4.28016633e-01, 4.28016633e-01,
          1.81183249e-01, 1.57712027e-01, 1.91262111e-01, 2.36289516e-01,
          4.03732002e-01, 5.51309586e-01, 5.51309586e-01, 2.15749919e-01,
          8.29545930e-02, 2.29986846e-01, 2.06336245e-01, 1.69396400e-01,
          4.22958702e-01, 4.22958702e-01, 4.22958702e-01, 2.18427494e-01,
          4.22958702e-01, 2.98336744e-01, 2.68725365e-01, 2.07396269e-01,
          3.61305922e-01, 3.61305922e-01, 2.72777528e-01, 3.61305922e-01,
          3.61305922e-01, 3.61305922e-01, 3.61305922e-01, 3.09382349e-01 ]
      - [ 1.62652731e-01, 2.82933712e-01, 4.88365173e-01, 3.19945455e-01,
          2.09940404e-01, 4.88365173e-01, 4.88365173e-01, 1.16666563e-01,
          1.14288971e-01, 3.88064861e-01, 4.05644983e-01, 4.05644983e-01,
          3.34295750e-01, 1.46301791e-01, 7.39925876e-02, 4.05644983e-01,
          4.05644983e-01, 2.20293149e-01, 2.76849270e-01, 5.09632170e-01,
          3.42216462e-01, 4.87284958e-02, 5.10210432e-02, 6.52762949e-02,
          5.09632170e-01, 5.09632170e-01, 1.12868510e-01, 5.44621088e-02,
          3.82566124e-01, 4.96912450e-01, 8.43541846e-02, 6.59276322e-02,
          1.86955169e-01, 4.96912450e-01, 4.96912450e-01, 2.41937846e-01,
          3.81020874e-01, 4.15725380e-01, 4.15725380e-01, 2.99409419e-01,
          2.59643048e-01, 4.47773300e-02, 4.15725380e-01, 4.15725380e-01,
          1.71591938e-02, 2.88051099e-01, 4.74937886e-01, 4.74937886e-01,
          5.08552417e-02, 6.45386949e-02, 5.43431900e-02, 4.74937886e-01,
          4.74937886e-01, 1.77256726e-02, 2.02882469e-01, 4.21939164e-01,
          4.63543147e-01, 3.28322947e-01, 1.88683830e-02, 1.46993762e-02,
          1.52286723e-01, 4.63543147e-01, 4.63543147e-01, 3.05409104e-01,
          3.73274833e-01, 3.73274833e-01, 2.12150648e-01, 3.07246745e-01,
          3.73274833e-01, 3.73274833e-01, 3.70545775e-01, 2.62577683e-01,
          4.40192282e-01, 4.40192282e-01, 4.40192282e-01, 2.94964556e-02,
          4.21495400e-02, 4.40192282e-01, 4.40192282e-01, 1.51974782e-01,
          3.18407305e-02, 2.02882469e-01, 4.21939164e-01, 4.63543147e-01,
          3.28322947e-01, 1.88683830e-02, 1.46993762e-02, 1.52286723e-01,
          4.63543147e-01, 4.63543147e-01, 3.05409104e-01, 3.73274833e-01,
          3.73274833e-01, 2.12150648e-01, 3.07246745e-01, 3.73274833e-01,
          3.73274833e-01, 3.70545775e-01, 2.62577683e-01, 4.40192282e-01,
          4.40192282e-01, 4.40192282e-01, 2.94964556e-02, 4.21495400e-02,
          4.40192282e-01, 4.40192282e-01, 1.51974782e-01, 3.18407305e-02,
          1.30571812e-01, 9.25635025e-02, 3.95988733e-01, 4.60853308e-01,
          4.60853308e-01, 4.60853308e-01, 7.88661987e-02, 1.26729131e-01,
          3.91835660e-01, 2.55316347e-01, 4.39011335e-01, 4.39011335e-01,
          2.56791953e-02, 3.34365517e-01, 4.39011335e-01, 4.12499815e-01,
          1.09996952e-01, 2.39833578e-01, 2.49098510e-01, 5.37690818e-01,
          1.84018254e-01, 0., 1.87677145e-02, 5.37690818e-01,
          5.37690818e-01, 1.30020142e-01, 1.18852340e-01, 4.28281754e-01,
          3.92083377e-01, 3.59116048e-01, 3.51150364e-01, 4.28281754e-01,
          1.75337240e-01, 8.63319635e-02, 3.53463776e-02, 4.28281754e-01,
          3.95912886e-01, 3.95912886e-01, 3.95912886e-01, 7.58070052e-02,
          2.16346085e-01, 3.95912886e-01, 3.95912886e-01, 9.33312401e-02,
          3.88647467e-01, 4.64811087e-01, 2.51604110e-01, 5.84187470e-02,
          7.87216239e-03, 3.69008966e-02, 4.64811087e-01, 4.64811087e-01,
          2.51035661e-01, 4.64811087e-01, 2.76849270e-01, 5.09632170e-01,
          3.42216462e-01, 4.87284958e-02, 5.10210432e-02, 6.52762949e-02,
          5.09632170e-01, 5.09632170e-01, 1.12868510e-01, 6.21703863e-01,
          6.21703863e-01, 4.21319991e-01, 2.83354498e-03, 5.04011214e-02,
          1.78788379e-01, 2.46485248e-02, 8.59678630e-03, 8.97540823e-02,
          3.86092156e-01, 3.86092156e-01, 3.24277021e-02, 3.86092156e-01,
          3.86092156e-01, 3.86092156e-01, 5.59761114e-02, 3.12337697e-01,
          3.86092156e-01, 2.88051099e-01, 4.74937886e-01, 4.74937886e-01,
          5.08552417e-02, 6.45386949e-02, 5.43431900e-02, 4.74937886e-01,
          4.74937886e-01, 1.77256726e-02, 1.86224192e-01, 4.88960505e-01,
          4.88960505e-01, 2.99410410e-02, 4.56366315e-02, 4.88960505e-01,
          4.88960505e-01, 2.92123985e-02, 1.65802129e-02, 5.61252646e-02,
          6.20933808e-02, 2.44555399e-01, 5.26940644e-01, 5.26940644e-01,
          5.26940644e-01, 2.79932559e-01, 7.22561404e-02, 1.06498875e-01,
          4.40192282e-01, 4.40192282e-01, 4.40192282e-01, 2.94964556e-02,
          4.21495400e-02, 4.40192282e-01, 4.40192282e-01, 1.51974782e-01,
          3.18407305e-02, 1.22612961e-01, 3.11627567e-01, 1.20573610e-01,
          2.00048797e-02, 4.12615538e-02, 6.52463734e-01, 6.52463734e-01,
          7.88379759e-02, 8.40623677e-02, 7.83405453e-02, 4.27357368e-02,
          4.22128916e-01, 3.94571185e-01, 1.67451635e-01, 4.35322672e-01,
          4.35322672e-01, 4.29969519e-01, 2.48763427e-01, 4.40192282e-01,
          4.40192282e-01, 4.40192282e-01, 2.94964556e-02, 4.21495400e-02,
          4.40192282e-01, 4.40192282e-01, 1.51974782e-01, 3.18407305e-02,
          1.22612961e-01, 3.11627567e-01, 1.20573610e-01, 2.00048797e-02,
          4.12615538e-02, 6.52463734e-01, 6.52463734e-01, 7.88379759e-02,
          8.40623677e-02, 7.83405453e-02, 4.27357368e-02, 4.22128916e-01,
          3.94571185e-01, 1.67451635e-01, 4.35322672e-01, 4.35322672e-01,
          4.29969519e-01, 2.48763427e-01, 2.49098510e-01, 5.37690818e-01,
          1.84018254e-01, 0., 1.87677145e-02, 5.37690818e-01,
          5.37690818e-01, 1.30020142e-01, 1.18852340e-01, 2.30546564e-01,
          2.23975316e-01, 4.63402458e-02, 0., 2.40459487e-01,
          6.90091193e-01, 5.72726727e-01, 1.19030677e-01, 1.06846377e-01,
          1.44092515e-01, 2.19786599e-01, 2.72969902e-01, 6.57005385e-02,
          9.81066898e-02, 2.52078056e-01, 5.46082258e-01, 5.46082258e-01,
          4.20795530e-01, 4.64811087e-01, 2.51604110e-01, 5.84187470e-02,
          7.87216239e-03, 3.69008966e-02, 4.64811087e-01, 4.64811087e-01,
          2.51035661e-01, 4.64811087e-01, 6.71943665e-01, 1.24601386e-01,
          1.10794745e-01, 0., 5.32207899e-02, 2.97283493e-02,
          1.86760470e-01, 1.54526755e-01, 6.71943665e-01, 5.30280352e-01,
          4.71409976e-01, 2.10383445e-01, 1.53538380e-02, 4.43726666e-02,
          1.23061217e-01, 3.58066857e-01, 1.42339766e-01, 5.30280352e-01 ]
      - [ 3.70312274e-01, 2.44088471e-01, 3.70312274e-01, 3.70312274e-01,
          2.57443309e-01, 2.18304932e-01, 3.70312274e-01, 3.70312274e-01,
          3.70312274e-01, 4.31426525e-01, 3.29885930e-01, 3.68118048e-01,
          5.36829010e-02, 3.39237973e-02, 5.29788621e-02, 4.31426525e-01,
          4.31426525e-01, 4.31426525e-01, 6.82203650e-01, 1.09082684e-01,
          7.77816325e-02, 3.81614417e-02, 4.86471839e-02, 8.86624455e-02,
          1.52920574e-01, 9.67904106e-02, 6.82203650e-01, 3.54883760e-01,
          3.54883760e-01, 3.54883760e-01, 3.54883760e-01, 2.50345975e-01,
          3.54883760e-01, 3.54883760e-01, 3.54883760e-01, 2.28438050e-01,
          2.16751099e-01, 4.00887996e-01, 4.89092082e-01, 1.20767824e-01,
          1.55535802e-01, 1.47140935e-01, 4.89092082e-01, 4.89092082e-01,
          9.67625380e-02, 3.39920253e-01, 2.97071934e-01, 3.54288042e-01,
          2.00720266e-01, 3.53233814e-01, 3.54288042e-01, 3.54288042e-01,
          3.54288042e-01, 3.54288042e-01, 3.61083627e-01, 3.61083627e-01,
          3.61083627e-01, 3.61083627e-01, 2.51429170e-01, 3.39247525e-01,
          3.61083627e-01, 3.61083627e-01, 1.89205199e-01, 5.28842211e-02,
          3.29251975e-01, 4.02810812e-01, 3.15398425e-01, 4.02810812e-01,
          3.54497492e-01, 4.02810812e-01, 4.02810812e-01, 1.02963805e-01,
          1.05261154e-01, 3.64030957e-01, 3.94478649e-01, 2.59301692e-01,
          3.94478649e-01, 3.40960115e-01, 3.94478649e-01, 2.84155488e-01,
          3.48403394e-01, 3.61083627e-01, 3.61083627e-01, 3.61083627e-01,
          3.61083627e-01, 2.51429170e-01, 3.39247525e-01, 3.61083627e-01,
          3.61083627e-01, 1.89205199e-01, 5.28842211e-02, 3.29251975e-01,
          4.02810812e-01, 3.15398425e-01, 4.02810812e-01, 3.54497492e-01,
          4.02810812e-01, 4.02810812e-01, 1.02963805e-01, 1.05261154e-01,
          3.64030957e-01, 3.94478649e-01, 2.59301692e-01, 3.94478649e-01,
          3.40960115e-01, 3.94478649e-01, 2.84155488e-01, 3.48403394e-01,
          2.34068990e-01, 3.00898045e-01, 4.04870421e-01, 4.04870421e-01,
          1.88035071e-01, 2.13861302e-01, 4.04870421e-01, 4.04870421e-01,
          3.37421894e-01, 3.55420321e-01, 4.09432322e-01, 4.09432322e-01,
          2.60629505e-01, 1.07659854e-01, 1.64940134e-01, 4.09432322e-01,
          4.09432322e-01, 3.03847611e-01, 3.32778692e-01, 3.32778692e-01,
          3.32778692e-01, 3.32778692e-01, 3.32778692e-01, 3.32778692e-01,
          3.32778692e-01, 3.32778692e-01, 3.32778692e-01, 2.58998334e-01,
          3.58290166e-01, 3.58290166e-01, 1.75320446e-01, 3.58290166e-01,
          3.58290166e-01, 3.58290166e-01, 3.58290166e-01, 3.58290166e-01,
          7.20667243e-02, 2.25104287e-01, 2.67288268e-01, 3.67156684e-01,
          4.32424605e-01, 3.34864408e-01, 4.32424605e-01, 4.32424605e-01,
          2.45887458e-01, 2.00917721e-01, 1.46654785e-01, 1.23905577e-01,
          5.00939071e-01, 5.28357685e-01, 1.87354788e-01, 2.19765231e-01,
          4.56132323e-01, 3.09738934e-01, 6.82203650e-01, 1.09082684e-01,
          7.77816325e-02, 3.81614417e-02, 4.86471839e-02, 8.86624455e-02,
          1.52920574e-01, 9.67904106e-02, 6.82203650e-01, 4.74378079e-01,
          4.74378079e-01, 4.59107518e-01, 4.21374850e-02, 1.30815301e-02,
          1.65430121e-02, 2.35505626e-01, 2.27365851e-01, 4.74378079e-01,
          5.48932254e-01, 4.73064154e-01, 2.89630264e-01, 1.10416440e-02,
          6.39270246e-02, 8.29764903e-02, 1.54648826e-01, 2.21764907e-01,
          5.48932254e-01, 3.39920253e-01, 2.97071934e-01, 3.54288042e-01,
          2.00720266e-01, 3.53233814e-01, 3.54288042e-01, 3.54288042e-01,
          3.54288042e-01, 3.54288042e-01, 1.90734237e-01, 4.58444685e-01,
          4.58444685e-01, 1.31599978e-01, 1.18244894e-01, 1.11498028e-01,
          4.58444685e-01, 4.58444685e-01, 2.73172021e-01, 3.50358129e-01,
          3.50358129e-01, 3.50358129e-01, 3.03121597e-01, 3.50358129e-01,
          2.76752770e-01, 3.50358129e-01, 3.02522600e-01, 3.50358129e-01,
          1.05261154e-01, 3.64030957e-01, 3.94478649e-01, 2.59301692e-01,
          3.94478649e-01, 3.40960115e-01, 3.94478649e-01, 2.84155488e-01,
          3.48403394e-01, 6.46234900e-02, 4.18882936e-01, 4.18882936e-01,
          1.06451951e-01, 4.18882936e-01, 4.18882936e-01, 4.18882936e-01,
          2.67813861e-01, 1.76829070e-01, 3.23269844e-01, 3.86821121e-01,
          3.86821121e-01, 1.47788450e-01, 3.86821121e-01, 1.17211811e-01,
          3.86821121e-01, 3.63822013e-01, 3.53784382e-01, 1.05261154e-01,
          3.64030957e-01, 3.94478649e-01, 2.59301692e-01, 3.94478649e-01,
          3.40960115e-01, 3.94478649e-01, 2.84155488e-01, 3.48403394e-01,
          6.46234900e-02, 4.18882936e-01, 4.18882936e-01, 1.06451951e-01,
          4.18882936e-01, 4.18882936e-01, 4.18882936e-01, 2.67813861e-01,
          1.76829070e-01, 3.23269844e-01, 3.86821121e-01, 3.86821121e-01,
          1.47788450e-01, 3.86821121e-01, 1.17211811e-01, 3.86821121e-01,
          3.63822013e-01, 3.53784382e-01, 3.32778692e-01, 3.32778692e-01,
          3.32778692e-01, 3.32778692e-01, 3.32778692e-01, 3.32778692e-01,
          3.32778692e-01, 3.32778692e-01, 3.32778692e-01, 2.62186199e-01,
          4.16812241e-01, 4.16812241e-01, 1.17953859e-01, 4.16812241e-01,
          3.33460301e-01, 4.16812241e-01, 2.02861786e-01, 2.56715924e-01,
          3.68621349e-01, 3.68621349e-01, 3.68621349e-01, 1.67286396e-01,
          2.77754247e-01, 3.68621349e-01, 3.68621349e-01, 2.93627352e-01,
          3.54343951e-01, 2.00917721e-01, 1.46654785e-01, 1.23905577e-01,
          5.00939071e-01, 5.28357685e-01, 1.87354788e-01, 2.19765231e-01,
          4.56132323e-01, 3.09738934e-01, 2.12763697e-01, 3.02071691e-01,
          4.53054577e-01, 4.53054577e-01, 4.53054577e-01, 3.88980925e-01,
          1.96686015e-01, 1.46778718e-01, 1.77899048e-01, 5.63110262e-02,
          1.88342586e-01, 4.88526553e-01, 4.88526553e-01, 4.88526553e-01,
          4.02436316e-01, 2.22636655e-01, 1.60765842e-01, 5.59870973e-02 ]
      - [ 3.86258870e-01, 2.77120650e-01, 1.18858561e-01, 1.00212410e-01,
          3.86258870e-01, 3.86258870e-01, 3.86258870e-01, 3.86258870e-01,
          3.86258870e-01, 3.44043702e-01, 3.06703538e-01, 3.44043702e-01,
          2.71906167e-01, 3.44043702e-01, 3.44043702e-01, 3.44043702e-01,
          3.44043702e-01, 3.44043702e-01, 3.46878380e-01, 3.46878380e-01,
          3.46878380e-01, 2.70567924e-01, 3.46878380e-01, 3.46878380e-01,
          3.46878380e-01, 3.46878380e-01, 2.84701616e-01, 3.65911305e-01,
          1.04909733e-01, 5.84099777e-02, 1.40858456e-01, 4.06887054e-01,
          4.06887054e-01, 4.06887054e-01, 4.06887054e-01, 4.06887054e-01,
          3.90174240e-01, 4.59599756e-02, 6.27548173e-02, 3.90174240e-01,
          3.90174240e-01, 3.90174240e-01, 3.90174240e-01, 2.76832372e-01,
          3.90174240e-01, 3.90886545e-01, 8.40938389e-02, 2.93523371e-01,
          3.50976497e-01, 3.90886545e-01, 3.90886545e-01, 3.87549490e-01,
          1.35348022e-01, 3.90886545e-01, 4.46536839e-01, 2.29680315e-02,
          2.87994575e-02, 1.19063608e-01, 4.46536839e-01, 2.85936862e-01,
          4.14914072e-01, 3.57641608e-01, 4.46536839e-01, 4.71616954e-01,
          3.14402618e-02, 9.36309341e-03, 1.84905723e-01, 4.71616954e-01,
          2.29595363e-01, 1.32736161e-01, 4.71616954e-01, 4.71616954e-01,
          3.88395756e-01, 1.09022945e-01, 1.68244660e-01, 2.25433022e-01,
          3.88395756e-01, 3.88395756e-01, 3.88395756e-01, 3.88395756e-01,
          3.88395756e-01, 4.46536839e-01, 2.29680315e-02, 2.87994575e-02,
          1.19063608e-01, 4.46536839e-01, 2.85936862e-01, 4.14914072e-01,
          3.57641608e-01, 4.46536839e-01, 4.71616954e-01, 3.14402618e-02,
          9.36309341e-03, 1.84905723e-01, 4.71616954e-01, 2.29595363e-01,
          1.32736161e-01, 4.71616954e-01, 4.71616954e-01, 3.88395756e-01,
          1.09022945e-01, 1.68244660e-01, 2.25433022e-01, 3.88395756e-01,
          3.88395756e-01, 3.88395756e-01, 3.88395756e-01, 3.88395756e-01,
          1.89368710e-01, 1.29802510e-01, 1.39281884e-01, 2.84207255e-01,
          4.53270674e-01, 4.53270674e-01, 4.53270674e-01, 4.53270674e-01,
          1.44128188e-01, 3.50876182e-01, 2.99879432e-01, 3.50876182e-01,
          3.50876182e-01, 3.50876182e-01, 3.50876182e-01, 3.10272008e-01,
          3.50876182e-01, 2.67607033e-01, 3.64795536e-01, 3.64795536e-01,
          3.64795536e-01, 3.64795536e-01, 1.91953897e-01, 1.67268291e-01,
          3.64795536e-01, 3.64795536e-01, 3.64795536e-01, 3.84604454e-01,
          3.12038630e-01, 1.35906249e-01, 2.66304553e-01, 3.84604454e-01,
          3.84604454e-01, 3.84604454e-01, 3.33830982e-01, 3.25998843e-01,
          3.57702136e-01, 3.57702136e-01, 3.57702136e-01, 3.57702136e-01,
          3.57702136e-01, 3.18321228e-01, 3.01472187e-01, 1.91069216e-01,
          3.57702136e-01, 3.89296055e-01, 3.47009271e-01, 4.19343799e-01,
          3.17836761e-01, 4.19343799e-01, 1.95840985e-01, 2.97039896e-01,
          8.23749900e-02, 3.71151596e-01, 3.46878380e-01, 3.46878380e-01,
          3.46878380e-01, 2.70567924e-01, 3.46878380e-01, 3.46878380e-01,
          3.46878380e-01, 3.46878380e-01, 2.84701616e-01, 3.74199361e-01,
          3.74199361e-01, 3.74199361e-01, 1.59503922e-01, 3.74199361e-01,
          3.56740445e-01, 3.74199361e-01, 2.59239227e-01, 2.76089847e-01,
          3.41722935e-01, 3.41722935e-01, 3.41722935e-01, 2.49778807e-01,
          3.41722935e-01, 3.41722935e-01, 3.41722935e-01, 3.41722935e-01,
          3.41722935e-01, 3.90886545e-01, 8.40938389e-02, 2.93523371e-01,
          3.50976497e-01, 3.90886545e-01, 3.90886545e-01, 3.87549490e-01,
          1.35348022e-01, 3.90886545e-01, 3.58329922e-01, 2.86575228e-01,
          3.58329922e-01, 3.58329922e-01, 3.58329922e-01, 3.58329922e-01,
          3.58329922e-01, 1.24467880e-01, 3.58329922e-01, 3.75124335e-01,
          3.75124335e-01, 3.75124335e-01, 1.78106710e-01, 3.75124335e-01,
          3.75124335e-01, 2.99008012e-01, 1.75541744e-01, 3.75124335e-01,
          3.88395756e-01, 1.09022945e-01, 1.68244660e-01, 2.25433022e-01,
          3.88395756e-01, 3.88395756e-01, 3.88395756e-01, 3.88395756e-01,
          3.88395756e-01, 3.86776149e-01, 3.86776149e-01, 3.86776149e-01,
          3.86776149e-01, 3.86776149e-01, 1.66910663e-01, 2.13555574e-01,
          1.58417284e-01, 3.86776149e-01, 4.07205880e-01, 3.17075223e-01,
          4.07205880e-01, 2.56025583e-01, 4.07205880e-01, 3.15833002e-01,
          2.09167406e-01, 1.51915520e-01, 4.07205880e-01, 3.88395756e-01,
          1.09022945e-01, 1.68244660e-01, 2.25433022e-01, 3.88395756e-01,
          3.88395756e-01, 3.88395756e-01, 3.88395756e-01, 3.88395756e-01,
          3.86776149e-01, 3.86776149e-01, 3.86776149e-01, 3.86776149e-01,
          3.86776149e-01, 1.66910663e-01, 2.13555574e-01, 1.58417284e-01,
          3.86776149e-01, 4.07205880e-01, 3.17075223e-01, 4.07205880e-01,
          2.56025583e-01, 4.07205880e-01, 3.15833002e-01, 2.09167406e-01,
          1.51915520e-01, 4.07205880e-01, 3.64795536e-01, 3.64795536e-01,
          3.64795536e-01, 3.64795536e-01, 1.91953897e-01, 1.67268291e-01,
          3.64795536e-01, 3.64795536e-01, 3.64795536e-01, 4.35045570e-01,
          2.77016759e-01, 3.88456285e-01, 1.75331190e-01, 2.99998790e-01,
          1.30624846e-01, 4.35045570e-01, 2.49841094e-01, 4.35045570e-01,
          4.17728007e-01, 5.63172810e-02, 1.18760943e-01, 1.04498766e-01,
          3.08460504e-01, 4.17728007e-01, 4.17728007e-01, 4.17728007e-01,
          4.17728007e-01, 3.89296055e-01, 3.47009271e-01, 4.19343799e-01,
          3.17836761e-01, 4.19343799e-01, 1.95840985e-01, 2.97039896e-01,
          8.23749900e-02, 3.71151596e-01, 1.98423222e-01, 3.19657117e-01,
          3.64663452e-01, 2.92850167e-01, 3.86305004e-01, 3.86305004e-01,
          3.86305004e-01, 1.97285131e-01, 3.86305004e-01, 1.36602163e-01,
          7.14819059e-02, 8.21177661e-02, 1.02241039e-01, 4.36959654e-01,
          4.36959654e-01, 4.36959654e-01, 4.36959654e-01, 4.36959654e-01 ]
      - [ 1.92955315e-01, 6.56092465e-02, 5.26377670e-02, 0.,
          1.36334881e-01, 6.68598652e-01, 6.68598652e-01, 9.60567314e-03,
          1.90500364e-01, 2.79304624e-01, 3.06741685e-01, 1.94862008e-01,
          2.49116644e-02, 3.91877532e-01, 5.59812069e-01, 5.59812069e-01,
          2.77656149e-02, 5.09745106e-02, 3.86143446e-01, 2.86670089e-01,
          2.98493892e-01, 3.86938304e-01, 1.64918825e-01, 3.86938304e-01,
          2.22859144e-01, 3.86938304e-01, 3.86938304e-01, 5.14206402e-02,
          5.63772246e-02, 4.30263355e-02, 1.52066816e-02, 1.55866116e-01,
          5.90040624e-01, 5.90040624e-01, 4.85065013e-01, 1.74140990e-01,
          1.27635926e-01, 3.11944574e-01, 4.26210701e-01, 4.26210701e-01,
          4.26210701e-01, 4.26210701e-01, 2.09600970e-01, 2.61740714e-01,
          2.07554922e-01, 8.15710798e-02, 2.14557856e-01, 5.30768335e-01,
          5.30768335e-01, 5.30768335e-01, 1.22780398e-01, 4.09802534e-02,
          1.61009505e-01, 2.32780784e-01, 8.06607455e-02, 1.49410456e-01,
          3.82435530e-01, 3.82435530e-01, 2.99679697e-01, 3.82435530e-01,
          3.82435530e-01, 3.82435530e-01, 3.82435530e-01, 4.43636388e-01,
          3.92098337e-01, 3.65385681e-01, 1.81705415e-01, 8.94585326e-02,
          1.14800788e-01, 2.52353430e-01, 4.43636388e-01, 4.43636388e-01,
          9.39761475e-02, 1.23156250e-01, 4.75679368e-01, 4.75679368e-01,
          1.71530455e-01, 2.84593496e-02, 4.62660968e-01, 4.75679368e-01,
          2.19430402e-01, 8.06607455e-02, 1.49410456e-01, 3.82435530e-01,
          3.82435530e-01, 2.99679697e-01, 3.82435530e-01, 3.82435530e-01,
          3.82435530e-01, 3.82435530e-01, 4.43636388e-01, 3.92098337e-01,
          3.65385681e-01, 1.81705415e-01, 8.94585326e-02, 1.14800788e-01,
          2.52353430e-01, 4.43636388e-01, 4.43636388e-01, 9.39761475e-02,
          1.23156250e-01, 4.75679368e-01, 4.75679368e-01, 1.71530455e-01,
          2.84593496e-02, 4.62660968e-01, 4.75679368e-01, 2.19430402e-01,
          8.04136768e-02, 1.68374404e-01, 4.44962353e-01, 4.44962353e-01,
          2.85237432e-01, 0., 3.74562740e-01, 4.44962353e-01,
          3.80928993e-01, 2.88936764e-01, 2.31508017e-01, 4.23659295e-01,
          3.69256496e-01, 1.00536443e-01, 1.05549388e-01, 4.23659295e-01,
          4.23659295e-01, 4.03270692e-01, 4.08642024e-01, 4.08642024e-01,
          1.13357179e-01, 2.08099663e-01, 1.96371779e-01, 2.57408172e-01,
          4.08642024e-01, 4.08642024e-01, 4.08642024e-01, 8.14521685e-02,
          1.12161346e-01, 3.07958305e-01, 2.67542750e-01, 3.25891018e-01,
          0., 5.37119210e-01, 5.37119210e-01, 3.54690075e-01,
          2.47922808e-01, 3.70969653e-01, 3.70969653e-01, 3.70969653e-01,
          3.70969653e-01, 2.21476078e-01, 3.70969653e-01, 3.70969653e-01,
          2.45082527e-01, 4.03305858e-01, 4.03305858e-01, 9.29251760e-02,
          1.57486126e-02, 4.03305858e-01, 3.53445202e-01, 4.03305858e-01,
          2.21102566e-01, 4.03305858e-01, 3.86143446e-01, 2.86670089e-01,
          2.98493892e-01, 3.86938304e-01, 1.64918825e-01, 3.86938304e-01,
          2.22859144e-01, 3.86938304e-01, 3.86938304e-01, 8.70863628e-03,
          3.46439797e-03, 3.52708101e-01, 6.19317830e-01, 2.64171418e-02,
          1.28470507e-04, 9.86758270e-04, 6.19317830e-01, 3.18618178e-01,
          1.01499294e-03, 1.77978314e-02, 6.11677289e-01, 7.31291950e-01,
          1.07946992e-01, 0., 0., 2.49447003e-01, 9.78228599e-02,
          8.15710798e-02, 2.14557856e-01, 5.30768335e-01, 5.30768335e-01,
          5.30768335e-01, 1.22780398e-01, 4.09802534e-02, 1.61009505e-01,
          2.32780784e-01, 9.22165215e-02, 3.28350849e-02, 3.46837729e-01,
          5.36708057e-01, 2.38924753e-02, 0., 4.92821587e-03,
          5.36708057e-01, 5.36708057e-01, 6.08990947e-03, 2.95225042e-03,
          5.03134668e-01, 5.03134668e-01, 1.11687407e-02, 2.22525574e-04,
          8.80578160e-03, 5.03134668e-01, 4.85070676e-01, 9.39761475e-02,
          1.23156250e-01, 4.75679368e-01, 4.75679368e-01, 1.71530455e-01,
          2.84593496e-02, 4.62660968e-01, 4.75679368e-01, 2.19430402e-01,
          6.78825844e-03, 2.52987951e-01, 5.49750328e-01, 5.49750328e-01,
          5.49750328e-01, 6.03640378e-02, 4.66087274e-02, 1.04241937e-01,
          8.42747539e-02, 4.54855636e-02, 1.19450048e-01, 3.87901157e-01,
          4.56612319e-01, 2.24909589e-01, 2.36334905e-01, 3.10985297e-01,
          4.56612319e-01, 4.56612319e-01, 9.39761475e-02, 1.23156250e-01,
          4.75679368e-01, 4.75679368e-01, 1.71530455e-01, 2.84593496e-02,
          4.62660968e-01, 4.75679368e-01, 2.19430402e-01, 6.78825844e-03,
          2.52987951e-01, 5.49750328e-01, 5.49750328e-01, 5.49750328e-01,
          6.03640378e-02, 4.66087274e-02, 1.04241937e-01, 8.42747539e-02,
          4.54855636e-02, 1.19450048e-01, 3.87901157e-01, 4.56612319e-01,
          2.24909589e-01, 2.36334905e-01, 3.10985297e-01, 4.56612319e-01,
          4.56612319e-01, 4.08642024e-01, 4.08642024e-01, 1.13357179e-01,
          2.08099663e-01, 1.96371779e-01, 2.57408172e-01, 4.08642024e-01,
          4.08642024e-01, 4.08642024e-01, 4.07716244e-01, 4.07716244e-01,
          4.07716244e-01, 3.12663794e-01, 4.07716244e-01, 1.82802737e-01,
          1.31544501e-01, 1.27612248e-01, 4.07716244e-01, 4.33515847e-01,
          4.33515847e-01, 3.36440176e-01, 5.19952141e-02, 3.36921126e-01,
          4.33515847e-01, 3.83444756e-01, 1.07407182e-01, 2.09485576e-01,
          4.03305858e-01, 4.03305858e-01, 9.29251760e-02, 1.57486126e-02,
          4.03305858e-01, 3.53445202e-01, 4.03305858e-01, 2.21102566e-01,
          4.03305858e-01, 4.81242865e-01, 4.81242865e-01, 1.22443438e-01,
          6.50980370e-03, 2.69845098e-01, 3.26253712e-01, 2.53789812e-01,
          2.04223782e-01, 4.81242865e-01, 6.34315848e-01, 6.34315848e-01,
          8.60423073e-02, 1.34809446e-02, 9.42542180e-02, 2.19497219e-01,
          1.92110673e-01, 6.90312758e-02, 2.87461460e-01 ]
      - [ 3.21292132e-01, 1.17807485e-01, 2.66871214e-01, 3.66970986e-01,
          3.66970986e-01, 3.66970986e-01, 3.66970986e-01, 3.66970986e-01,
          3.66970986e-01, 3.48520488e-01, 3.48520488e-01, 3.48520488e-01,
          3.48520488e-01, 3.14907014e-01, 3.48520488e-01, 3.01707059e-01,
          2.78433442e-01, 3.48520488e-01, 3.74546736e-01, 3.74546736e-01,
          3.74546736e-01, 3.74546736e-01, 3.74546736e-01, 3.74546736e-01,
          2.69346595e-01, 1.66086286e-01, 2.33268589e-01, 2.41752788e-01,
          1.71076506e-01, 4.45186049e-01, 1.94740802e-01, 9.59394649e-02,
          2.99621761e-01, 4.19961959e-01, 4.45186049e-01, 4.45186049e-01,
          3.39885384e-01, 3.39885384e-01, 3.39885384e-01, 3.39885384e-01,
          2.69123703e-01, 3.39885384e-01, 3.39885384e-01, 3.39885384e-01,
          3.39885384e-01, 3.66924971e-01, 3.66924971e-01, 3.66924971e-01,
          3.66924971e-01, 3.66924971e-01, 3.66924971e-01, 1.79563150e-01,
          2.07818151e-01, 3.36302251e-01, 7.79649094e-02, 2.02078801e-02,
          5.62375076e-02, 1.66640893e-01, 4.37768996e-01, 4.37768996e-01,
          4.37768996e-01, 4.37768996e-01, 4.37768996e-01, 3.53134185e-01,
          1.06275164e-01, 9.40054283e-02, 3.32750976e-01, 4.03308958e-01,
          4.03308958e-01, 2.99633056e-01, 4.03308958e-01, 4.03308958e-01,
          4.06238079e-01, 2.09161878e-01, 2.21496761e-01, 4.06238079e-01,
          4.06238079e-01, 4.06238079e-01, 2.25004852e-01, 1.65403143e-01,
          4.06238079e-01, 7.79649094e-02, 2.02078801e-02, 5.62375076e-02,
          1.66640893e-01, 4.37768996e-01, 4.37768996e-01, 4.37768996e-01,
          4.37768996e-01, 4.37768996e-01, 3.53134185e-01, 1.06275164e-01,
          9.40054283e-02, 3.32750976e-01, 4.03308958e-01, 4.03308958e-01,
          2.99633056e-01, 4.03308958e-01, 4.03308958e-01, 4.06238079e-01,
          2.09161878e-01, 2.21496761e-01, 4.06238079e-01, 4.06238079e-01,
          4.06238079e-01, 2.25004852e-01, 1.65403143e-01, 4.06238079e-01,
          8.80973265e-02, 5.38461618e-02, 1.06613733e-01, 1.67994022e-01,
          2.60606259e-01, 4.28527087e-01, 4.92325634e-01, 4.92325634e-01,
          4.56633002e-01, 5.89730814e-02, 9.95371938e-02, 2.28842273e-01,
          2.17559993e-01, 4.36066449e-01, 4.36066449e-01, 4.36066449e-01,
          4.36066449e-01, 3.49201411e-01, 3.71599525e-01, 3.71599525e-01,
          3.71599525e-01, 3.71599525e-01, 3.71599525e-01, 3.45262319e-01,
          3.21558326e-01, 1.46695092e-01, 2.48457685e-01, 3.73674743e-02,
          3.04622743e-02, 1.53578877e-01, 4.41577822e-01, 4.62452233e-01,
          2.80383021e-01, 4.62452233e-01, 4.62452233e-01, 2.32977122e-01,
          3.79975945e-01, 2.81984359e-01, 2.27704585e-01, 1.77111700e-01,
          3.47636610e-01, 3.79975945e-01, 3.79975945e-01, 3.79975945e-01,
          3.67549717e-01, 3.52467120e-01, 3.52467120e-01, 3.52467120e-01,
          2.88652390e-01, 3.52467120e-01, 3.52467120e-01, 3.52467120e-01,
          2.48695597e-01, 3.25438708e-01, 3.74546736e-01, 3.74546736e-01,
          3.74546736e-01, 3.74546736e-01, 3.74546736e-01, 3.74546736e-01,
          2.69346595e-01, 1.66086286e-01, 2.33268589e-01, 3.13368976e-01,
          2.07306013e-01, 2.92881131e-01, 4.05477107e-01, 4.05477107e-01,
          4.05477107e-01, 3.31735492e-01, 4.05477107e-01, 3.60428393e-02,
          1.88030899e-01, 1.58833191e-01, 2.75645822e-01, 4.18021530e-01,
          4.18021530e-01, 4.18021530e-01, 4.18021530e-01, 3.73767525e-01,
          1.43491298e-01, 3.66924971e-01, 3.66924971e-01, 3.66924971e-01,
          3.66924971e-01, 3.66924971e-01, 3.66924971e-01, 1.79563150e-01,
          2.07818151e-01, 3.36302251e-01, 2.73245454e-01, 1.80893093e-01,
          2.76154280e-01, 3.68030012e-01, 3.68030012e-01, 3.68030012e-01,
          3.68030012e-01, 3.68030012e-01, 3.68030012e-01, 3.84500623e-01,
          3.84500623e-01, 3.84500623e-01, 2.97185302e-01, 2.12774113e-01,
          2.52297759e-01, 3.84500623e-01, 3.84500623e-01, 2.44353905e-01,
          4.06238079e-01, 2.09161878e-01, 2.21496761e-01, 4.06238079e-01,
          4.06238079e-01, 4.06238079e-01, 2.25004852e-01, 1.65403143e-01,
          4.06238079e-01, 2.69905120e-01, 2.68044591e-01, 3.55316490e-01,
          3.55316490e-01, 3.55316490e-01, 3.55316490e-01, 3.55316490e-01,
          3.07009041e-01, 3.55316490e-01, 3.32468390e-01, 4.30269957e-01,
          4.30269957e-01, 1.59486756e-01, 1.00662172e-01, 2.32634291e-01,
          3.78873020e-01, 4.16736633e-01, 3.28634441e-01, 4.06238079e-01,
          2.09161878e-01, 2.21496761e-01, 4.06238079e-01, 4.06238079e-01,
          4.06238079e-01, 2.25004852e-01, 1.65403143e-01, 4.06238079e-01,
          2.69905120e-01, 2.68044591e-01, 3.55316490e-01, 3.55316490e-01,
          3.55316490e-01, 3.55316490e-01, 3.55316490e-01, 3.07009041e-01,
          3.55316490e-01, 3.32468390e-01, 4.30269957e-01, 4.30269957e-01,
          1.59486756e-01, 1.00662172e-01, 2.32634291e-01, 3.78873020e-01,
          4.16736633e-01, 3.28634441e-01, 3.71599525e-01, 3.71599525e-01,
          3.71599525e-01, 3.71599525e-01, 3.71599525e-01, 3.45262319e-01,
          3.21558326e-01, 1.46695092e-01, 2.48457685e-01, 2.61478871e-01,
          3.88551533e-01, 3.88551533e-01, 3.88551533e-01, 3.88551533e-01,
          3.19809437e-01, 3.88551533e-01, 2.37319052e-01, 1.19528212e-01,
          1.61079735e-01, 4.54205960e-01, 4.54205960e-01, 4.54205960e-01,
          1.64199904e-01, 2.23155290e-01, 4.54205960e-01, 2.57172585e-01,
          3.75054069e-02, 3.52467120e-01, 3.52467120e-01, 3.52467120e-01,
          2.88652390e-01, 3.52467120e-01, 3.52467120e-01, 3.52467120e-01,
          2.48695597e-01, 3.25438708e-01, 2.68280178e-01, 3.07968616e-01,
          3.46378297e-01, 3.46378297e-01, 3.46378297e-01, 3.46378297e-01,
          3.46378297e-01, 3.46378297e-01, 3.31440449e-01, 2.08016828e-01,
          4.40470994e-01, 4.40470994e-01, 4.40470994e-01, 5.81537746e-02,
          2.07693964e-01, 4.40470994e-01, 2.83255458e-01, 2.22526357e-01 ]
      - [ 1.16867229e-01, 1.05792090e-01, 1.61824049e-03, 1.80935692e-02,
          1.98879689e-01, 6.80502534e-01, 6.80502534e-01, 4.38138768e-02,
          1.96617581e-02, 2.31054261e-01, 5.43206632e-01, 2.71339212e-02,
          1.93407293e-02, 2.29066953e-01, 5.43206632e-01, 5.43206632e-01,
          4.49720696e-02, 1.90925561e-02, 7.86236972e-02, 2.54322141e-01,
          3.39659959e-01, 4.35643345e-01, 1.74636707e-01, 4.35643345e-01,
          1.67202011e-01, 4.35643345e-01, 4.26154971e-01, 1.25072360e-01,
          9.09648538e-02, 1.42127392e-03, 7.99655449e-03, 2.72559673e-01,
          6.51234448e-01, 6.51234448e-01, 1.97199091e-01, 9.01433006e-02,
          2.14544281e-01, 3.61151367e-01, 4.35086548e-01, 4.35086548e-01,
          4.35086548e-01, 4.35086548e-01, 2.44275987e-01, 2.41918359e-02,
          4.16780822e-02, 4.99386601e-02, 1.71976104e-01, 5.38327754e-01,
          5.38327754e-01, 5.38327754e-01, 7.30526894e-02, 2.91237533e-02,
          2.79708594e-01, 9.34988782e-02, 1.99231356e-01, 2.05297992e-01,
          1.17181838e-01, 1.96295217e-01, 1.33199722e-01, 4.59229529e-01,
          4.59229529e-01, 4.59229529e-01, 4.59229529e-01, 3.66779864e-01,
          3.46326530e-01, 3.66779864e-01, 1.59162655e-01, 3.55532765e-01,
          2.28078961e-01, 3.66779864e-01, 3.66779864e-01, 3.66779864e-01,
          1.21262528e-01, 4.07524437e-01, 4.07524437e-01, 4.07524437e-01,
          4.07524437e-01, 1.14380838e-02, 4.07524437e-01, 3.58663410e-01,
          1.48570821e-01, 1.99231356e-01, 2.05297992e-01, 1.17181838e-01,
          1.96295217e-01, 1.33199722e-01, 4.59229529e-01, 4.59229529e-01,
          4.59229529e-01, 4.59229529e-01, 3.66779864e-01, 3.46326530e-01,
          3.66779864e-01, 1.59162655e-01, 3.55532765e-01, 2.28078961e-01,
          3.66779864e-01, 3.66779864e-01, 3.66779864e-01, 1.21262528e-01,
          4.07524437e-01, 4.07524437e-01, 4.07524437e-01, 4.07524437e-01,
          1.14380838e-02, 4.07524437e-01, 3.58663410e-01, 1.48570821e-01,
          1.55194066e-02, 1.40113970e-02, 1.92344844e-01, 5.52502692e-01,
          1.83681935e-01, 5.42847663e-02, 6.77164495e-02, 5.52502692e-01,
          5.52502692e-01, 3.40000093e-01, 1.43383488e-01, 4.19531554e-01,
          3.75066906e-01, 5.83593324e-02, 5.58732599e-02, 4.22850430e-01,
          4.22850430e-01, 4.22850430e-01, 3.83645087e-01, 1.68231845e-01,
          3.83645087e-01, 2.89824426e-01, 3.83645087e-01, 2.76731998e-02,
          3.83645087e-01, 3.83645087e-01, 3.83645087e-01, 3.50208767e-02,
          1.60411163e-03, 7.83974454e-02, 2.90733010e-01, 8.38285964e-03,
          3.45814526e-02, 1.49395734e-01, 6.62532806e-01, 6.62532806e-01,
          2.51870193e-02, 1.63120721e-02, 2.87634760e-01, 5.39049804e-01,
          1.54411480e-01, 7.66945183e-02, 9.76404026e-02, 5.39049804e-01,
          5.39049804e-01, 4.28632736e-01, 4.28632736e-01, 1.12471960e-01,
          2.29884729e-01, 4.18291651e-02, 4.28632736e-01, 2.09635347e-01,
          3.86808157e-01, 4.28632736e-01, 7.86236972e-02, 2.54322141e-01,
          3.39659959e-01, 4.35643345e-01, 1.74636707e-01, 4.35643345e-01,
          1.67202011e-01, 4.35643345e-01, 4.26154971e-01, 1.21406959e-02,
          5.38501665e-02, 6.52678311e-01, 6.52678311e-01, 7.46069551e-02,
          4.14906209e-03, 9.78302583e-03, 3.35599273e-01, 1.41960546e-01,
          5.18942513e-02, 1.03354901e-01, 5.96822143e-01, 7.07953572e-01,
          3.38630944e-01, 3.89146581e-02, 5.58728911e-02, 1.82335973e-02,
          5.02338894e-02, 4.99386601e-02, 1.71976104e-01, 5.38327754e-01,
          5.38327754e-01, 5.38327754e-01, 7.30526894e-02, 2.91237533e-02,
          2.79708594e-01, 9.34988782e-02, 1.92617625e-03, 2.44778190e-02,
          5.15207767e-01, 5.31682074e-01, 2.99225003e-02, 2.14445982e-02,
          3.39342169e-02, 5.31682074e-01, 4.00961280e-01, 1.98671734e-03,
          2.07584631e-02, 6.51813209e-01, 6.51813209e-01, 5.92640378e-02,
          5.34773758e-03, 1.96728185e-02, 2.66882628e-01, 2.61118323e-01,
          1.21262528e-01, 4.07524437e-01, 4.07524437e-01, 4.07524437e-01,
          4.07524437e-01, 1.14380838e-02, 4.07524437e-01, 3.58663410e-01,
          1.48570821e-01, 2.07411367e-02, 3.05155784e-01, 4.25978810e-01,
          4.25978810e-01, 4.25978810e-01, 2.62892455e-01, 1.57168150e-01,
          4.09437746e-01, 3.10430646e-01, 3.17712396e-01, 4.43181962e-01,
          4.43181962e-01, 4.43181962e-01, 3.49140912e-02, 3.40809792e-01,
          2.02542543e-01, 3.02232027e-01, 2.35930443e-01, 1.21262528e-01,
          4.07524437e-01, 4.07524437e-01, 4.07524437e-01, 4.07524437e-01,
          1.14380838e-02, 4.07524437e-01, 3.58663410e-01, 1.48570821e-01,
          2.07411367e-02, 3.05155784e-01, 4.25978810e-01, 4.25978810e-01,
          4.25978810e-01, 2.62892455e-01, 1.57168150e-01, 4.09437746e-01,
          3.10430646e-01, 3.17712396e-01, 4.43181962e-01, 4.43181962e-01,
          4.43181962e-01, 3.49140912e-02, 3.40809792e-01, 2.02542543e-01,
          3.02232027e-01, 2.35930443e-01, 3.83645087e-01, 1.68231845e-01,
          3.83645087e-01, 2.89824426e-01, 3.83645087e-01, 2.76731998e-02,
          3.83645087e-01, 3.83645087e-01, 3.83645087e-01, 3.96564573e-01,
          3.96564573e-01, 3.96564573e-01, 3.96564573e-01, 3.96564573e-01,
          2.19698370e-01, 6.09110184e-02, 2.19050925e-02, 3.96564573e-01,
          5.91614842e-01, 5.91614842e-01, 2.53409654e-01, 8.83233920e-02,
          3.75715606e-02, 4.49935704e-01, 1.33630544e-01, 1.85787231e-02,
          1.67481089e-03, 4.28632736e-01, 4.28632736e-01, 1.12471960e-01,
          2.29884729e-01, 4.18291651e-02, 4.28632736e-01, 2.09635347e-01,
          3.86808157e-01, 4.28632736e-01, 5.48892021e-01, 5.48892021e-01,
          1.24454856e-01, 1.99740473e-02, 1.65333562e-02, 5.21283746e-01,
          5.05099408e-02, 3.06028891e-02, 3.17124724e-01, 6.79210126e-01,
          6.79210126e-01, 2.42096528e-01, 4.82925214e-02, 4.89528812e-02,
          5.37774758e-03, 2.23722048e-02, 3.92067544e-02, 7.18389153e-02 ]
      - [ 7.22984672e-02, 1.14306912e-01, 4.41452801e-01, 1.04745895e-01,
          4.41452801e-01, 4.18140560e-01, 4.41452801e-01, 4.41452801e-01,
          1.09369986e-01, 3.40582132e-01, 3.03321242e-01, 9.13711637e-02,
          1.99860297e-02, 3.94793093e-01, 3.94793093e-01, 3.94793093e-01,
          3.94793093e-01, 3.94793093e-01, 2.32961550e-01, 2.51561943e-02,
          3.42264771e-02, 2.40701497e-01, 5.06233811e-01, 5.06233811e-01,
          5.06233811e-01, 5.13659157e-02, 3.30870003e-01, 2.95345988e-02,
          1.23597808e-01, 4.46070910e-01, 4.46070910e-01, 3.99138927e-01,
          4.46070910e-01, 4.46070910e-01, 1.55452356e-01, 1.04861415e-03,
          1.28511786e-02, 1.00150071e-01, 3.80285591e-01, 6.96696416e-02,
          1.15033790e-01, 6.29847944e-01, 6.29847944e-01, 1.64702266e-01,
          1.64011512e-02, 2.80463845e-01, 2.83936381e-01, 2.76965290e-01,
          1.61629736e-01, 2.14732662e-01, 5.61100841e-01, 5.61100841e-01,
          1.29807264e-01, 1.99134931e-01, 2.61661053e-01, 4.13253874e-01,
          4.13253874e-01, 4.13253874e-01, 1.25841111e-01, 2.13735461e-01,
          4.13253874e-01, 4.13253874e-01, 1.09510683e-01, 1.39909014e-01,
          2.40014479e-01, 4.35998857e-01, 9.94504169e-02, 1.29536822e-01,
          4.74607319e-01, 4.74607319e-01, 4.74607319e-01, 1.59864455e-01,
          3.69170994e-01, 3.69170994e-01, 3.69170994e-01, 9.47617143e-02,
          3.69170994e-01, 3.69170994e-01, 3.69170994e-01, 1.82541564e-01,
          3.69170994e-01, 2.61661053e-01, 4.13253874e-01, 4.13253874e-01,
          4.13253874e-01, 1.25841111e-01, 2.13735461e-01, 4.13253874e-01,
          4.13253874e-01, 1.09510683e-01, 1.39909014e-01, 2.40014479e-01,
          4.35998857e-01, 9.94504169e-02, 1.29536822e-01, 4.74607319e-01,
          4.74607319e-01, 4.74607319e-01, 1.59864455e-01, 3.69170994e-01,
          3.69170994e-01, 3.69170994e-01, 9.47617143e-02, 3.69170994e-01,
          3.69170994e-01, 3.69170994e-01, 1.82541564e-01, 3.69170994e-01,
          4.13578987e-01, 4.13578987e-01, 4.13578987e-01, 7.95845985e-02,
          1.35539360e-02, 1.51051963e-02, 4.13578987e-01, 4.13578987e-01,
          3.65902990e-01, 2.78054833e-01, 4.54041690e-01, 1.99182749e-01,
          1.83279049e-02, 1.62801921e-01, 3.92911613e-01, 4.54041690e-01,
          4.54041690e-01, 2.80704409e-01, 5.92949569e-01, 5.92949569e-01,
          2.80116081e-01, 1.81646291e-02, 2.17542127e-01, 1.37416795e-01,
          3.43501091e-01, 1.09364696e-01, 1.26271755e-01, 4.35373038e-01,
          3.39715421e-01, 3.41316551e-01, 0., 4.09358554e-03,
          8.36136984e-04, 4.37477320e-01, 4.37477320e-01, 4.37477320e-01,
          4.75501448e-01, 4.75501448e-01, 6.18140474e-02, 3.26905446e-03,
          6.60532191e-02, 1.08654335e-01, 4.75501448e-01, 4.75501448e-01,
          2.66164660e-01, 5.16731679e-01, 5.16731679e-01, 1.18436389e-01,
          7.19608320e-03, 2.40292266e-01, 2.29485124e-01, 2.55972534e-01,
          6.16434589e-02, 5.16731679e-01, 2.32961550e-01, 2.51561943e-02,
          3.42264771e-02, 2.40701497e-01, 5.06233811e-01, 5.06233811e-01,
          5.06233811e-01, 5.13659157e-02, 3.30870003e-01, 1.66025639e-01,
          2.19589397e-02, 4.62002993e-01, 4.62002993e-01, 4.62002993e-01,
          4.62002993e-01, 1.50460690e-01, 2.23803315e-02, 3.00686151e-01,
          4.15739268e-01, 3.20369482e-01, 4.15739268e-01, 4.15739268e-01,
          4.15739268e-01, 1.66361719e-01, 3.65097076e-02, 2.33765738e-03,
          4.15739268e-01, 2.80463845e-01, 2.83936381e-01, 2.76965290e-01,
          1.61629736e-01, 2.14732662e-01, 5.61100841e-01, 5.61100841e-01,
          1.29807264e-01, 1.99134931e-01, 2.98027128e-01, 1.36794969e-01,
          4.01398242e-01, 4.01398242e-01, 3.31700683e-01, 2.33872920e-01,
          4.01398242e-01, 3.14353257e-01, 3.76238704e-01, 4.58085909e-02,
          1.52585879e-01, 6.78141534e-01, 6.78141534e-01, 1.02699615e-01,
          8.06533918e-02, 1.41662866e-01, 7.75316954e-02, 7.04677030e-02,
          3.69170994e-01, 3.69170994e-01, 3.69170994e-01, 9.47617143e-02,
          3.69170994e-01, 3.69170994e-01, 3.69170994e-01, 1.82541564e-01,
          3.69170994e-01, 3.67202848e-01, 3.23316664e-01, 3.67202848e-01,
          2.71204323e-01, 3.67202848e-01, 9.60111544e-02, 3.67202848e-01,
          3.67202848e-01, 3.67202848e-01, 1.88385084e-01, 2.44585618e-01,
          4.23933089e-01, 4.23933089e-01, 3.90704662e-01, 4.41627912e-02,
          4.23933089e-01, 2.75488198e-01, 3.61665726e-01, 3.69170994e-01,
          3.69170994e-01, 3.69170994e-01, 9.47617143e-02, 3.69170994e-01,
          3.69170994e-01, 3.69170994e-01, 1.82541564e-01, 3.69170994e-01,
          3.67202848e-01, 3.23316664e-01, 3.67202848e-01, 2.71204323e-01,
          3.67202848e-01, 9.60111544e-02, 3.67202848e-01, 3.67202848e-01,
          3.67202848e-01, 1.88385084e-01, 2.44585618e-01, 4.23933089e-01,
          4.23933089e-01, 3.90704662e-01, 4.41627912e-02, 4.23933089e-01,
          2.75488198e-01, 3.61665726e-01, 5.92949569e-01, 5.92949569e-01,
          2.80116081e-01, 1.81646291e-02, 2.17542127e-01, 1.37416795e-01,
          3.43501091e-01, 1.09364696e-01, 1.26271755e-01, 1.84969410e-01,
          3.23699683e-01, 1.19268343e-01, 4.33581658e-02, 1.14700213e-01,
          8.21508244e-02, 3.30049843e-01, 5.95865905e-01, 5.95865905e-01,
          2.86243320e-01, 4.04059172e-01, 4.04059172e-01, 4.04059172e-01,
          2.20665053e-01, 5.68738841e-02, 2.13966340e-01, 4.04059172e-01,
          4.04059172e-01, 5.16731679e-01, 5.16731679e-01, 1.18436389e-01,
          7.19608320e-03, 2.40292266e-01, 2.29485124e-01, 2.55972534e-01,
          6.16434589e-02, 5.16731679e-01, 4.54672784e-01, 4.37521078e-02,
          7.13354268e-04, 5.58866234e-03, 1.11870743e-01, 3.43633831e-01,
          4.67638254e-01, 4.67638254e-01, 4.67638254e-01, 3.19904804e-01,
          4.47354048e-01, 4.47354048e-01, 9.30916816e-02, 1.45390676e-02,
          2.14944612e-02, 2.88704693e-01, 4.47354048e-01, 4.47354048e-01 ]
      - [ 2.13698983e-01, 8.33050981e-02, 1.17164664e-02, 0.,
          1.01407818e-01, 6.81738734e-01, 6.81738734e-01, 1.96067467e-02,
          1.57061797e-02, 4.98088419e-01, 4.98088419e-01, 7.52907991e-03,
          0., 1.36947930e-02, 4.98088419e-01, 4.98088419e-01,
          2.66164783e-02, 4.12845947e-02, 3.79698813e-01, 3.79698813e-01,
          1.82410821e-01, 3.79698813e-01, 2.99396850e-02, 3.79698813e-01,
          3.11463386e-01, 3.79698813e-01, 3.79698813e-01, 2.29104698e-01,
          1.64479256e-01, 4.68360260e-02, 9.48233530e-02, 5.37734330e-01,
          5.37734330e-01, 5.37734330e-01, 1.90676540e-01, 8.37691687e-03,
          3.20645690e-01, 2.73369670e-01, 1.20903023e-01, 5.92284128e-02,
          5.93352973e-01, 5.93352973e-01, 2.78144151e-01, 9.86210108e-02,
          8.47320557e-02, 2.46203646e-01, 3.91901076e-01, 2.40045097e-02,
          3.73720303e-02, 6.40565872e-01, 2.55715042e-01, 9.69171375e-02,
          4.56969261e-01, 2.88964212e-01, 1.84201956e-01, 3.25808972e-01,
          1.19277611e-01, 4.20406193e-01, 2.77975649e-01, 4.20406193e-01,
          4.20406193e-01, 4.20406193e-01, 2.39281163e-01, 3.36103410e-01,
          3.36103410e-01, 3.36103410e-01, 3.36103410e-01, 3.36103410e-01,
          3.36103410e-01, 3.36103410e-01, 3.04824322e-01, 3.36103410e-01,
          3.42057437e-01, 3.42057437e-01, 3.19933623e-01, 3.42057437e-01,
          3.42057437e-01, 3.42057437e-01, 2.74229556e-01, 3.42057437e-01,
          3.42057437e-01, 1.84201956e-01, 3.25808972e-01, 1.19277611e-01,
          4.20406193e-01, 2.77975649e-01, 4.20406193e-01, 4.20406193e-01,
          4.20406193e-01, 2.39281163e-01, 3.36103410e-01, 3.36103410e-01,
          3.36103410e-01, 3.36103410e-01, 3.36103410e-01, 3.36103410e-01,
          3.36103410e-01, 3.04824322e-01, 3.36103410e-01, 3.42057437e-01,
          3.42057437e-01, 3.19933623e-01, 3.42057437e-01, 3.42057437e-01,
          3.42057437e-01, 2.74229556e-01, 3.42057437e-01, 3.42057437e-01,
          3.49022806e-01, 1.15789259e-02, 5.36816977e-02, 4.91027594e-01,
          5.14455363e-02, 9.54302866e-03, 3.79738152e-01, 4.91027594e-01,
          4.91027594e-01, 4.92329836e-01, 1.98881216e-02, 1.52272120e-01,
          4.92329836e-01, 2.41049469e-01, 2.52016485e-01, 9.73181650e-02,
          3.36521089e-01, 4.92329836e-01, 4.66707945e-01, 6.21014312e-02,
          1.73050463e-01, 4.47415531e-01, 2.98278272e-01, 4.66707945e-01,
          1.23575024e-01, 6.05389848e-02, 4.66707945e-01, 1.87972724e-03,
          0., 6.74122274e-02, 5.74330747e-01, 1.02925003e-02,
          2.56963680e-03, 6.10290281e-03, 5.74330747e-01, 5.74330747e-01,
          3.08101578e-03, 6.51974278e-03, 4.51797575e-01, 5.13084710e-01,
          2.52368897e-02, 1.21471873e-02, 1.22703686e-02, 5.13084710e-01,
          5.13084710e-01, 2.27918446e-01, 3.03985476e-01, 3.70214641e-01,
          3.70214641e-01, 3.12907040e-01, 3.70214641e-01, 2.96179026e-01,
          3.70214641e-01, 3.43626142e-01, 3.79698813e-01, 3.79698813e-01,
          1.82410821e-01, 3.79698813e-01, 2.99396850e-02, 3.79698813e-01,
          3.11463386e-01, 3.79698813e-01, 3.79698813e-01, 1.66801251e-02,
          5.08943871e-02, 4.74918962e-01, 5.05014062e-01, 3.22817415e-02,
          1.02440743e-02, 1.65855158e-02, 5.05014062e-01, 5.05014062e-01,
          3.05861840e-03, 2.52860934e-02, 6.57410681e-01, 6.57410681e-01,
          7.40061477e-02, 0., 0., 2.39631414e-01, 2.55949438e-01,
          2.46203646e-01, 3.91901076e-01, 2.40045097e-02, 3.73720303e-02,
          6.40565872e-01, 2.55715042e-01, 9.69171375e-02, 4.56969261e-01,
          2.88964212e-01, 8.08363557e-02, 2.11495385e-01, 1.67253867e-01,
          3.47636253e-01, 6.53729320e-01, 1.93423882e-01, 3.34904231e-02,
          4.68762428e-01, 3.28251511e-01, 1.65304495e-03, 1.86276257e-01,
          4.66914713e-01, 4.66914713e-01, 4.66914713e-01, 7.11580738e-02,
          3.33447335e-03, 4.66914713e-01, 2.89002955e-01, 3.42057437e-01,
          3.42057437e-01, 3.19933623e-01, 3.42057437e-01, 3.42057437e-01,
          3.42057437e-01, 2.74229556e-01, 3.42057437e-01, 3.42057437e-01,
          3.36477846e-01, 3.36477846e-01, 3.11482608e-01, 3.27254236e-01,
          3.36477846e-01, 3.36477846e-01, 3.36477846e-01, 3.36477846e-01,
          3.36477846e-01, 2.56772190e-01, 4.77524817e-01, 4.77524817e-01,
          3.22245836e-01, 2.80959517e-01, 3.36257666e-01, 1.22670271e-01,
          2.97844142e-01, 2.71347791e-01, 3.42057437e-01, 3.42057437e-01,
          3.19933623e-01, 3.42057437e-01, 3.42057437e-01, 3.42057437e-01,
          2.74229556e-01, 3.42057437e-01, 3.42057437e-01, 3.36477846e-01,
          3.36477846e-01, 3.11482608e-01, 3.27254236e-01, 3.36477846e-01,
          3.36477846e-01, 3.36477846e-01, 3.36477846e-01, 3.36477846e-01,
          2.56772190e-01, 4.77524817e-01, 4.77524817e-01, 3.22245836e-01,
          2.80959517e-01, 3.36257666e-01, 1.22670271e-01, 2.97844142e-01,
          2.71347791e-01, 4.66707945e-01, 6.21014312e-02, 1.73050463e-01,
          4.47415531e-01, 2.98278272e-01, 4.66707945e-01, 1.23575024e-01,
          6.05389848e-02, 4.66707945e-01, 5.30621886e-01, 1.95392728e-01,
          9.87244099e-02, 2.16010228e-01, 1.24847844e-01, 5.30621886e-01,
          1.93879813e-01, 4.75448258e-02, 5.30621886e-01, 4.43929732e-01,
          4.43929732e-01, 4.43929732e-01, 1.66273881e-02, 9.30080749e-03,
          4.43929732e-01, 1.10740274e-01, 1.09529365e-02, 4.41049784e-01,
          2.27918446e-01, 3.03985476e-01, 3.70214641e-01, 3.70214641e-01,
          3.12907040e-01, 3.70214641e-01, 2.96179026e-01, 3.70214641e-01,
          3.43626142e-01, 4.97368813e-01, 4.97368813e-01, 4.12994474e-02,
          1.49253355e-02, 5.87594286e-02, 4.97368813e-01, 4.97368813e-01,
          7.36284629e-03, 9.70914867e-03, 5.72328568e-01, 5.72328568e-01,
          2.08044238e-02, 3.61220492e-03, 2.54398119e-03, 5.66791117e-01,
          1.32047251e-01, 0., 4.88491869e-03 ]
      - [ 1.10947322e-02, 1.45657258e-02, 8.36245436e-03, 2.43379474e-01,
          5.30706704e-01, 5.30706704e-01, 5.30706704e-01, 3.00091833e-01,
          7.57390680e-03, 1.96362399e-02, 2.35841749e-03, 7.11064553e-03,
          5.68605065e-01, 7.88598001e-01, 1.91051632e-01, 8.00970495e-02,
          4.78203371e-02, 3.58661450e-02, 9.55683738e-02, 2.78935935e-02,
          1.40115395e-01, 6.27443850e-01, 6.62746370e-01, 3.37581486e-01,
          8.59121829e-02, 5.18828817e-02, 8.29910263e-02, 9.19172913e-03,
          1.21558525e-01, 2.35215083e-01, 1.62174881e-01, 3.18892121e-01,
          2.11995795e-01, 6.12677634e-01, 6.12677634e-01, 3.56459338e-03,
          9.98204947e-02, 3.57480258e-01, 3.75052333e-01, 3.75052333e-01,
          3.75052333e-01, 3.75052333e-01, 3.75052333e-01, 3.75052333e-01,
          1.20462507e-01, 3.44647259e-01, 3.44647259e-01, 3.44647259e-01,
          2.15180665e-01, 3.44647259e-01, 3.44647259e-01, 3.44647259e-01,
          3.44647259e-01, 3.44647259e-01, 3.66432965e-02, 2.04737604e-01,
          2.33083636e-01, 1.52256042e-01, 2.96279453e-02, 1.32884338e-01,
          6.53231740e-01, 6.53231740e-01, 2.73675267e-02, 1.04450271e-01,
          3.84311587e-01, 3.84311587e-01, 3.35293919e-01, 3.19207221e-01,
          3.55185509e-01, 3.84311587e-01, 3.84311587e-01, 2.32373118e-01,
          3.58698547e-01, 3.58698547e-01, 3.58698547e-01, 3.58698547e-01,
          3.58698547e-01, 1.60923690e-01, 3.58698547e-01, 3.58698547e-01,
          2.64324605e-01, 3.66432965e-02, 2.04737604e-01, 2.33083636e-01,
          1.52256042e-01, 2.96279453e-02, 1.32884338e-01, 6.53231740e-01,
          6.53231740e-01, 2.73675267e-02, 1.04450271e-01, 3.84311587e-01,
          3.84311587e-01, 3.35293919e-01, 3.19207221e-01, 3.55185509e-01,
          3.84311587e-01, 3.84311587e-01, 2.32373118e-01, 3.58698547e-01,
          3.58698547e-01, 3.58698547e-01, 3.58698547e-01, 3.58698547e-01,
          1.60923690e-01, 3.58698547e-01, 3.58698547e-01, 2.64324605e-01,
          2.79350400e-01, 1.82886139e-01, 1.77918896e-01, 7.05794767e-02,
          7.18174353e-02, 3.07996690e-01, 5.97022831e-01, 5.97022831e-01,
          1.81730241e-01, 3.76638174e-01, 3.76638174e-01, 3.76638174e-01,
          9.78789926e-02, 1.74604103e-01, 3.24087113e-01, 3.76638174e-01,
          3.76638174e-01, 3.76638174e-01, 3.54498357e-01, 3.54498357e-01,
          3.54498357e-01, 3.54498357e-01, 3.54498357e-01, 2.99517721e-01,
          3.54498357e-01, 3.54498357e-01, 1.64510667e-01, 3.61887187e-01,
          3.61887187e-01, 2.06547022e-01, 2.57019311e-01, 3.56133789e-01,
          3.61887187e-01, 3.61887187e-01, 3.61887187e-01, 3.25608462e-01,
          4.14560080e-01, 1.54061362e-01, 6.82476610e-02, 6.68423176e-02,
          4.14560080e-01, 4.14560080e-01, 4.06018823e-01, 3.32726121e-01,
          4.14560080e-01, 3.49791616e-01, 3.49791616e-01, 3.49791616e-01,
          1.32934868e-01, 3.49791616e-01, 3.49791616e-01, 3.49791616e-01,
          3.49791616e-01, 3.49791616e-01, 9.55683738e-02, 2.78935935e-02,
          1.40115395e-01, 6.27443850e-01, 6.62746370e-01, 3.37581486e-01,
          8.59121829e-02, 5.18828817e-02, 8.29910263e-02, 2.12119535e-01,
          2.01302450e-02, 6.00976236e-02, 6.52100861e-01, 6.52100861e-01,
          1.92214429e-01, 5.38079031e-02, 2.15030592e-02, 2.31739148e-01,
          3.50092083e-01, 6.09546388e-03, 2.17521135e-02, 5.42614222e-01,
          5.42614222e-01, 8.02146196e-02, 6.18185028e-02, 3.37384902e-02,
          5.20818353e-01, 3.44647259e-01, 3.44647259e-01, 3.44647259e-01,
          2.15180665e-01, 3.44647259e-01, 3.44647259e-01, 3.44647259e-01,
          3.44647259e-01, 3.44647259e-01, 1.78621680e-01, 2.65673727e-01,
          3.77736896e-01, 3.77736896e-01, 3.77736896e-01, 3.77736896e-01,
          3.77736896e-01, 3.68279010e-01, 2.11382791e-01, 1.68458417e-01,
          3.30119580e-01, 4.13682938e-01, 4.13682938e-01, 4.13682938e-01,
          3.76105517e-01, 2.51292199e-01, 1.72675028e-01, 3.32700729e-01,
          3.58698547e-01, 3.58698547e-01, 3.58698547e-01, 3.58698547e-01,
          3.58698547e-01, 1.60923690e-01, 3.58698547e-01, 3.58698547e-01,
          2.64324605e-01, 1.05439015e-01, 4.44793195e-01, 4.44793195e-01,
          3.75532836e-01, 1.11203663e-01, 1.93967700e-01, 4.44793195e-01,
          4.44793195e-01, 4.53996845e-02, 1.61933303e-01, 4.13959950e-01,
          4.13959950e-01, 4.13959950e-01, 2.44546279e-01, 3.21339875e-01,
          4.13959950e-01, 3.44842076e-01, 4.70392108e-02, 3.58698547e-01,
          3.58698547e-01, 3.58698547e-01, 3.58698547e-01, 3.58698547e-01,
          1.60923690e-01, 3.58698547e-01, 3.58698547e-01, 2.64324605e-01,
          1.05439015e-01, 4.44793195e-01, 4.44793195e-01, 3.75532836e-01,
          1.11203663e-01, 1.93967700e-01, 4.44793195e-01, 4.44793195e-01,
          4.53996845e-02, 1.61933303e-01, 4.13959950e-01, 4.13959950e-01,
          4.13959950e-01, 2.44546279e-01, 3.21339875e-01, 4.13959950e-01,
          3.44842076e-01, 4.70392108e-02, 3.54498357e-01, 3.54498357e-01,
          3.54498357e-01, 3.54498357e-01, 3.54498357e-01, 2.99517721e-01,
          3.54498357e-01, 3.54498357e-01, 1.64510667e-01, 3.30710083e-01,
          4.37920004e-01, 4.37920004e-01, 1.39963061e-01, 1.86955363e-01,
          1.02605261e-01, 4.37920004e-01, 4.37920004e-01, 2.32574403e-01,
          3.99907470e-01, 3.99907470e-01, 3.99907470e-01, 2.41895095e-01,
          1.43007219e-01, 9.32807475e-02, 3.99907470e-01, 3.94224077e-01,
          3.36485922e-01, 3.49791616e-01, 3.49791616e-01, 3.49791616e-01,
          1.32934868e-01, 3.49791616e-01, 3.49791616e-01, 3.49791616e-01,
          3.49791616e-01, 3.49791616e-01, 2.79985160e-01, 2.03837246e-01,
          3.43607247e-01, 4.80866909e-01, 5.00834107e-01, 1.85699582e-01,
          2.58719176e-01, 2.89839119e-01, 2.99159378e-01, 4.18156177e-01,
          1.10059850e-01, 2.30672091e-01, 4.97687817e-01, 4.97687817e-01,
          2.19219178e-01, 2.48009101e-01, 1.98702738e-01, 3.32291216e-01 ]
      - [ 4.02854651e-01, 0., 0., 0., 0., 0., 0., 0., 4.02854651e-01,
          3.80480945e-01, 0., 0., 0., 5.80022633e-01, 0., 0., 0.,
          3.80480945e-01, 0., 0., 0., 0., 8.97945523e-01, 0., 0., 0., 0.,
          2.25235194e-01, 1.78967968e-01, 1.36979535e-01, 2.07126271e-02,
          5.18638015e-01, 5.18638015e-01, 5.18638015e-01, 1.53951392e-01,
          2.49420077e-01, 4.94723141e-01, 9.63008404e-02, 2.74473820e-02,
          9.18570161e-03, 4.94723141e-01, 4.94723141e-01, 7.59485066e-02,
          1.32382317e-02, 4.94723141e-01, 4.76948500e-01, 5.45924017e-03,
          1.63777228e-02, 9.96274799e-02, 5.97726285e-01, 1.95309311e-01,
          6.30299281e-03, 5.99122979e-02, 5.97726285e-01, 2.58564949e-01,
          4.21022177e-01, 4.21022177e-01, 1.78965345e-01, 2.19415799e-01,
          3.23035240e-01, 4.21022177e-01, 3.92346382e-01, 2.42281124e-01,
          4.19171244e-01, 4.19171244e-01, 3.93507391e-01, 2.23273054e-01,
          4.19171244e-01, 2.68302441e-01, 1.21022083e-01, 4.07819897e-02,
          4.19171244e-01, 4.21101063e-01, 1.16935531e-02, 3.90677005e-02,
          9.26835313e-02, 4.21101063e-01, 4.21101063e-01, 4.21101063e-01,
          3.14499021e-01, 4.21101063e-01, 2.58564949e-01, 4.21022177e-01,
          4.21022177e-01, 1.78965345e-01, 2.19415799e-01, 3.23035240e-01,
          4.21022177e-01, 3.92346382e-01, 2.42281124e-01, 4.19171244e-01,
          4.19171244e-01, 3.93507391e-01, 2.23273054e-01, 4.19171244e-01,
          2.68302441e-01, 1.21022083e-01, 4.07819897e-02, 4.19171244e-01,
          4.21101063e-01, 1.16935531e-02, 3.90677005e-02, 9.26835313e-02,
          4.21101063e-01, 4.21101063e-01, 4.21101063e-01, 3.14499021e-01,
          4.21101063e-01, 1.27887100e-01, 4.46643680e-01, 2.53076553e-01,
          2.72631407e-01, 2.49023497e-01, 4.01258618e-01, 3.70691925e-01,
          2.85294533e-01, 4.46643680e-01, 3.53546768e-01, 1.18954398e-01,
          1.26663283e-01, 4.82348979e-01, 4.82348979e-01, 3.72761577e-01,
          2.97275446e-02, 4.66555804e-02, 4.82348979e-01, 4.33743387e-01,
          3.02430931e-02, 1.19354255e-01, 1.92244574e-01, 4.33743387e-01,
          4.33743387e-01, 4.33743387e-01, 5.36893234e-02, 4.33743387e-01,
          4.87042874e-01, 0., 0., 0., 0., 0., 0., 0., 4.87042874e-01,
          6.79564655e-01, 0., 0., 0., 0., 0., 0., 0., 7.13800669e-01,
          6.51358366e-01, 0., 0., 0., 0., 0., 0., 0., 7.50831842e-01, 0.,
          0., 0., 0., 8.97945523e-01, 0., 0., 0., 0., 0., 0., 0., 0., 0.,
          0., 0., 0., 0., 0., 0., 0., 0., 0., 0., 0., 0., 0.,
          4.76948500e-01, 5.45924017e-03, 1.63777228e-02, 9.96274799e-02,
          5.97726285e-01, 1.95309311e-01, 6.30299281e-03, 5.99122979e-02,
          5.97726285e-01, 1.13166280e-01, 3.01960739e-04, 9.42063555e-02,
          6.41435325e-01, 6.41435325e-01, 4.89825271e-02, 0.,
          8.49178210e-02, 3.73397261e-01, 1.60259418e-02, 1.67403165e-02,
          5.12565494e-01, 6.02364838e-01, 6.02364838e-01, 5.13248406e-02,
          0., 1.36748049e-02, 4.70858850e-02, 4.21101063e-01,
          1.16935531e-02, 3.90677005e-02, 9.26835313e-02, 4.21101063e-01,
          4.21101063e-01, 4.21101063e-01, 3.14499021e-01, 4.21101063e-01,
          3.73176813e-01, 2.13156268e-01, 1.78966463e-01, 3.77722144e-01,
          3.77722144e-01, 3.77722144e-01, 3.47985148e-01, 2.96160907e-01,
          3.77722144e-01, 1.62018850e-01, 5.07225394e-01, 5.07225394e-01,
          5.07225394e-01, 3.75808060e-01, 1.94363952e-01, 1.53276669e-02,
          5.55023663e-02, 1.20527424e-01, 4.21101063e-01, 1.16935531e-02,
          3.90677005e-02, 9.26835313e-02, 4.21101063e-01, 4.21101063e-01,
          4.21101063e-01, 3.14499021e-01, 4.21101063e-01, 3.73176813e-01,
          2.13156268e-01, 1.78966463e-01, 3.77722144e-01, 3.77722144e-01,
          3.77722144e-01, 3.47985148e-01, 2.96160907e-01, 3.77722144e-01,
          1.62018850e-01, 5.07225394e-01, 5.07225394e-01, 5.07225394e-01,
          3.75808060e-01, 1.94363952e-01, 1.53276669e-02, 5.55023663e-02,
          1.20527424e-01, 4.33743387e-01, 3.02430931e-02, 1.19354255e-01,
          1.92244574e-01, 4.33743387e-01, 4.33743387e-01, 4.33743387e-01,
          5.36893234e-02, 4.33743387e-01, 5.37558854e-01, 3.58356953e-01,
          1.42541155e-01, 1.32761290e-02, 3.78887147e-01, 3.00705492e-01,
          1.64019093e-01, 8.30486640e-02, 5.37558854e-01, 4.94796723e-01,
          4.94796723e-01, 4.94796723e-01, 5.33854924e-02, 6.51205853e-02,
          8.80180821e-02, 3.73637537e-03, 3.01839411e-02, 4.94796723e-01,
          6.51358366e-01, 0., 0., 0., 0., 0., 0., 0., 7.50831842e-01,
          7.29488194e-01, 0., 0., 0., 0., 0., 0., 0., 6.75768852e-01,
          7.47653782e-01, 0., 0., 0., 0., 0., 0., 0., 6.43069625e-01 ]
      - [ 2.88721651e-01, 1.00622915e-01, 5.36208563e-02, 6.92648515e-02,
          4.44391459e-01, 4.44391459e-01, 4.44391459e-01, 4.44391459e-01,
          3.23215216e-01, 3.83370429e-01, 2.08372086e-01, 2.24288672e-01,
          1.43556148e-01, 3.83370429e-01, 3.83370429e-01, 3.83370429e-01,
          3.83370429e-01, 3.83370429e-01, 3.82581025e-01, 3.82581025e-01,
          3.82581025e-01, 2.57081240e-01, 1.40471116e-01, 1.79292008e-01,
          3.82581025e-01, 3.82581025e-01, 3.82581025e-01, 3.84068191e-01,
          2.14188352e-01, 2.17370778e-01, 4.14609998e-01, 4.14609998e-01,
          4.14609998e-01, 4.14609998e-01, 1.95101038e-01, 1.71909571e-01,
          2.94593245e-01, 3.14273715e-01, 3.41271996e-01, 3.41271996e-01,
          3.41271996e-01, 3.41271996e-01, 3.41271996e-01, 3.35018814e-01,
          3.41271996e-01, 3.18756640e-01, 3.59984875e-01, 3.59984875e-01,
          3.59984875e-01, 3.59984875e-01, 3.59984875e-01, 2.11636722e-01,
          2.69207865e-01, 3.59984875e-01, 3.34040821e-01, 3.34040821e-01,
          3.34040821e-01, 3.34040821e-01, 3.22484791e-01, 3.34040821e-01,
          3.34040821e-01, 3.34040821e-01, 3.34040821e-01, 3.68655443e-01,
          3.68655443e-01, 3.68655443e-01, 1.81145936e-01, 1.10250130e-01,
          3.68655443e-01, 3.68655443e-01, 3.68655443e-01, 3.68655443e-01,
          3.60931218e-01, 3.68910283e-01, 3.68910283e-01, 3.68910283e-01,
          1.94738507e-01, 1.07476361e-01, 3.68910283e-01, 3.68910283e-01,
          3.68910283e-01, 3.34040821e-01, 3.34040821e-01, 3.34040821e-01,
          3.34040821e-01, 3.22484791e-01, 3.34040821e-01, 3.34040821e-01,
          3.34040821e-01, 3.34040821e-01, 3.68655443e-01, 3.68655443e-01,
          3.68655443e-01, 1.81145936e-01, 1.10250130e-01, 3.68655443e-01,
          3.68655443e-01, 3.68655443e-01, 3.68655443e-01, 3.60931218e-01,
          3.68910283e-01, 3.68910283e-01, 3.68910283e-01, 1.94738507e-01,
          1.07476361e-01, 3.68910283e-01, 3.68910283e-01, 3.68910283e-01,
          3.28194976e-01, 3.55206609e-01, 3.55206609e-01, 1.89215377e-01,
          3.55206609e-01, 3.09687406e-01, 3.55206609e-01, 3.55206609e-01,
          3.55206609e-01, 3.48118752e-01, 3.48118752e-01, 3.48118752e-01,
          2.04299361e-01, 3.48118752e-01, 3.48118752e-01, 3.48118752e-01,
          3.48118752e-01, 3.26308191e-01, 3.38581413e-01, 3.38581413e-01,
          3.38581413e-01, 3.38581413e-01, 3.38581413e-01, 3.38581413e-01,
          3.38581413e-01, 3.38581413e-01, 2.81989396e-01, 6.08417206e-02,
          2.11465056e-03, 1.60398483e-02, 2.55698889e-01, 5.11250913e-01,
          5.11250913e-01, 5.11250913e-01, 3.49960506e-01, 1.37637541e-01,
          1.41984642e-01, 1.51183352e-01, 2.64427096e-01, 4.42288488e-01,
          4.42288488e-01, 4.42288488e-01, 4.42288488e-01, 2.81981558e-01,
          1.43716171e-01, 1.35406107e-01, 3.90108347e-01, 2.61918694e-01,
          3.90108347e-01, 3.90108347e-01, 3.90108347e-01, 3.90108347e-01,
          1.72698453e-01, 3.44120920e-01, 3.82581025e-01, 3.82581025e-01,
          3.82581025e-01, 2.57081240e-01, 1.40471116e-01, 1.79292008e-01,
          3.82581025e-01, 3.82581025e-01, 3.82581025e-01, 3.67023498e-01,
          3.67023498e-01, 3.67023498e-01, 3.31302404e-01, 1.23878695e-01,
          3.67023498e-01, 3.67023498e-01, 2.50975013e-01, 3.67023498e-01,
          2.15431169e-01, 2.96022475e-01, 4.53700542e-01, 4.53700542e-01,
          3.92102510e-01, 3.81042808e-01, 3.62301201e-01, 8.00602660e-02,
          1.14586495e-01, 3.18756640e-01, 3.59984875e-01, 3.59984875e-01,
          3.59984875e-01, 3.59984875e-01, 3.59984875e-01, 2.11636722e-01,
          2.69207865e-01, 3.59984875e-01, 3.62634182e-01, 2.97478616e-01,
          3.18128169e-01, 3.08165878e-01, 3.62634182e-01, 3.62634182e-01,
          3.62634182e-01, 2.32796282e-01, 3.62634182e-01, 3.61788362e-01,
          3.61788362e-01, 1.81870699e-01, 3.61788362e-01, 3.61788362e-01,
          3.35884482e-01, 3.61788362e-01, 2.55235761e-01, 3.61788362e-01,
          3.60931218e-01, 3.68910283e-01, 3.68910283e-01, 3.68910283e-01,
          1.94738507e-01, 1.07476361e-01, 3.68910283e-01, 3.68910283e-01,
          3.68910283e-01, 3.46251100e-01, 3.46251100e-01, 3.46251100e-01,
          2.28547037e-01, 3.24157417e-01, 3.46251100e-01, 3.46251100e-01,
          3.46251100e-01, 3.46251100e-01, 3.51315975e-01, 3.51315975e-01,
          3.51315975e-01, 3.51315975e-01, 3.51315975e-01, 3.51315975e-01,
          3.51315975e-01, 2.10198194e-01, 2.97230810e-01, 3.60931218e-01,
          3.68910283e-01, 3.68910283e-01, 3.68910283e-01, 1.94738507e-01,
          1.07476361e-01, 3.68910283e-01, 3.68910283e-01, 3.68910283e-01,
          3.46251100e-01, 3.46251100e-01, 3.46251100e-01, 2.28547037e-01,
          3.24157417e-01, 3.46251100e-01, 3.46251100e-01, 3.46251100e-01,
          3.46251100e-01, 3.51315975e-01, 3.51315975e-01, 3.51315975e-01,
          3.51315975e-01, 3.51315975e-01, 3.51315975e-01, 3.51315975e-01,
          2.10198194e-01, 2.97230810e-01, 3.38581413e-01, 3.38581413e-01,
          3.38581413e-01, 3.38581413e-01, 3.38581413e-01, 3.38581413e-01,
          3.38581413e-01, 3.38581413e-01, 2.81989396e-01, 2.36952916e-01,
          1.47075728e-01, 3.65533113e-01, 3.87160987e-01, 3.87160987e-01,
          3.87160987e-01, 3.87160987e-01, 3.87160987e-01, 1.87807739e-01,
          3.79412144e-01, 3.79412144e-01, 3.79412144e-01, 3.79412144e-01,
          3.79412144e-01, 3.79412144e-01, 3.10690969e-01, 1.37977377e-01,
          1.30081922e-01, 1.35406107e-01, 3.90108347e-01, 2.61918694e-01,
          3.90108347e-01, 3.90108347e-01, 3.90108347e-01, 3.90108347e-01,
          1.72698453e-01, 3.44120920e-01, 2.58152932e-01, 1.46110028e-01,
          1.43190131e-01, 4.48060423e-01, 4.48060423e-01, 4.48060423e-01,
          4.48060423e-01, 1.73370764e-01, 2.32249796e-01, 1.50768101e-01,
          2.59918660e-01, 5.20337701e-01, 5.20337701e-01, 4.11623955e-01,
          3.94807637e-01, 1.67806640e-01, 6.60226494e-02, 7.20188320e-02 ]
      - [ 3.10354866e-03, 5.98841608e-01, 7.32692540e-01, 3.11388552e-01,
          1.61011573e-02, 8.36106425e-04, 0., 0., 2.13183207e-03,
          1.66385807e-03, 1.82332367e-01, 5.50554991e-01, 5.50554991e-01,
          5.26162446e-01, 2.79617131e-01, 0., 0., 0., 6.62545040e-02,
          8.58157352e-02, 4.10457134e-01, 3.18532258e-01, 5.96711934e-01,
          5.96711934e-01, 5.81644149e-03, 0., 1.36391791e-02,
          3.59496661e-03, 4.46889773e-02, 4.98250335e-01, 4.98250335e-01,
          4.98250335e-01, 4.98250335e-01, 0., 0., 0., 5.05608261e-01,
          4.22426254e-01, 8.86425674e-02, 1.91678673e-01, 5.05608261e-01,
          5.05608261e-01, 0., 0., 7.06340075e-02, 4.85720366e-01,
          4.85720366e-01, 1.21013194e-01, 8.23277533e-02, 4.85720366e-01,
          4.85720366e-01, 3.01391399e-03, 0., 1.73264608e-01,
          4.33668822e-01, 4.33668822e-01, 3.34917605e-01, 3.30999911e-01,
          4.33668822e-01, 4.33668822e-01, 0., 8.30958690e-03,
          1.46947831e-01, 4.36348826e-01, 4.36348826e-01, 3.90425585e-02,
          6.35071024e-02, 1.54450968e-01, 4.36348826e-01, 3.94475281e-01,
          2.90835559e-01, 3.93486738e-01, 3.59658927e-01, 3.59658927e-01,
          3.59658927e-01, 3.59658927e-01, 3.59658927e-01, 3.59658927e-01,
          1.67015940e-01, 2.51058936e-01, 3.59658927e-01, 4.33668822e-01,
          4.33668822e-01, 3.34917605e-01, 3.30999911e-01, 4.33668822e-01,
          4.33668822e-01, 0., 8.30958690e-03, 1.46947831e-01,
          4.36348826e-01, 4.36348826e-01, 3.90425585e-02, 6.35071024e-02,
          1.54450968e-01, 4.36348826e-01, 3.94475281e-01, 2.90835559e-01,
          3.93486738e-01, 3.59658927e-01, 3.59658927e-01, 3.59658927e-01,
          3.59658927e-01, 3.59658927e-01, 3.59658927e-01, 1.67015940e-01,
          2.51058936e-01, 3.59658927e-01, 4.03970778e-01, 4.03970778e-01,
          4.03970778e-01, 4.03970778e-01, 4.03970778e-01, 3.42112556e-02,
          0., 1.25059187e-01, 4.03970778e-01, 3.36001158e-01,
          1.70059234e-01, 7.98947215e-02, 5.14772356e-01, 5.14772356e-01,
          4.39420007e-02, 1.33032367e-01, 2.67509013e-01, 4.74855959e-01,
          3.92699957e-01, 2.42829561e-01, 2.71961123e-01, 3.92699957e-01,
          3.92699957e-01, 6.64910674e-02, 3.92699957e-01, 2.96075106e-01,
          3.92699957e-01, 4.20749962e-01, 2.22363248e-01, 4.20749962e-01,
          4.20749962e-01, 2.47384191e-01, 0., 0., 4.20749962e-01,
          4.20749962e-01, 4.47330683e-01, 2.75002364e-02, 2.24746630e-01,
          4.58359927e-01, 4.58359927e-01, 0., 1.93419345e-02,
          3.36740196e-01, 4.58359927e-01, 4.60179657e-01, 7.40280235e-03,
          1.41789362e-01, 4.60179657e-01, 4.60179657e-01, 3.26294340e-02,
          2.23181129e-01, 2.78044403e-01, 4.60179657e-01, 6.62545040e-02,
          8.58157352e-02, 4.10457134e-01, 3.18532258e-01, 5.96711934e-01,
          5.96711934e-01, 5.81644149e-03, 0., 1.36391791e-02,
          4.23064291e-01, 4.23064291e-01, 2.93160796e-01, 4.23064291e-01,
          4.23064291e-01, 4.23064291e-01, 1.64694395e-02, 5.55447489e-03,
          1.20878205e-01, 3.96909893e-01, 3.96909893e-01, 3.15267354e-01,
          2.52993822e-01, 1.44656777e-01, 1.60817906e-01, 3.94585311e-01,
          3.96909893e-01, 3.96909893e-01, 4.85720366e-01, 4.85720366e-01,
          1.21013194e-01, 8.23277533e-02, 4.85720366e-01, 4.85720366e-01,
          3.01391399e-03, 0., 1.73264608e-01, 6.28414690e-01,
          6.28414690e-01, 5.50810955e-02, 6.84939846e-02, 1.25190824e-01,
          2.09339812e-01, 1.85763498e-03, 6.43693667e-04, 3.69716853e-01,
          4.74354476e-01, 4.74354476e-01, 7.92468861e-02, 8.43804032e-02,
          3.95764075e-02, 7.29863718e-02, 4.74354476e-01, 4.74354476e-01,
          2.73715258e-01, 3.59658927e-01, 3.59658927e-01, 3.59658927e-01,
          3.59658927e-01, 3.59658927e-01, 3.59658927e-01, 1.67015940e-01,
          2.51058936e-01, 3.59658927e-01, 5.40292501e-01, 2.02792779e-01,
          2.50646055e-01, 9.97742265e-02, 5.40292501e-01, 6.72347099e-02,
          2.03320980e-02, 4.36819112e-03, 5.40292501e-01, 3.35442752e-01,
          3.14578414e-01, 4.03744072e-01, 1.41793966e-01, 4.03744072e-01,
          1.00020707e-01, 4.03744072e-01, 4.03744072e-01, 3.19904000e-01,
          3.59658927e-01, 3.59658927e-01, 3.59658927e-01, 3.59658927e-01,
          3.59658927e-01, 3.59658927e-01, 1.67015940e-01, 2.51058936e-01,
          3.59658927e-01, 5.40292501e-01, 2.02792779e-01, 2.50646055e-01,
          9.97742265e-02, 5.40292501e-01, 6.72347099e-02, 2.03320980e-02,
          4.36819112e-03, 5.40292501e-01, 3.35442752e-01, 3.14578414e-01,
          4.03744072e-01, 1.41793966e-01, 4.03744072e-01, 1.00020707e-01,
          4.03744072e-01, 4.03744072e-01, 3.19904000e-01, 3.92699957e-01,
          2.42829561e-01, 2.71961123e-01, 3.92699957e-01, 3.92699957e-01,
          6.64910674e-02, 3.92699957e-01, 2.96075106e-01, 3.92699957e-01,
          5.17477155e-01, 6.94336146e-02, 1.07899487e-01, 2.19099462e-01,
          5.17477155e-01, 2.46739119e-01, 2.21368700e-01, 1.30888864e-01,
          5.17477155e-01, 3.52766365e-01, 2.27137759e-01, 2.71615624e-01,
          3.52766365e-01, 3.52766365e-01, 3.52766365e-01, 3.52766365e-01,
          3.52766365e-01, 3.52766365e-01, 4.60179657e-01, 7.40280235e-03,
          1.41789362e-01, 4.60179657e-01, 4.60179657e-01, 3.26294340e-02,
          2.23181129e-01, 2.78044403e-01, 4.60179657e-01, 4.84247029e-01,
          5.07451827e-03, 8.51971209e-02, 4.84247029e-01, 4.84247029e-01,
          2.47671194e-02, 4.13992442e-02, 2.18108058e-01, 4.84247029e-01,
          3.98528576e-01, 1.49886400e-01, 8.27905387e-02, 3.98528576e-01,
          3.98528576e-01, 1.17254131e-01, 3.98528576e-01, 3.98528576e-01,
          3.98528576e-01 ]
      - [ 4.74398583e-01, 4.74398583e-01, 2.72149704e-02, 9.35865007e-03,
          2.41490051e-01, 4.74398583e-01, 4.74398583e-01, 1.68517798e-01,
          8.66121873e-02, 3.41022134e-01, 3.41022134e-01, 3.41022134e-01,
          3.41022134e-01, 2.57340074e-01, 3.41022134e-01, 3.41022134e-01,
          3.41022134e-01, 3.41022134e-01, 3.56119633e-01, 3.08322906e-01,
          3.56119633e-01, 3.56119633e-01, 3.56119633e-01, 1.16750047e-01,
          3.56119633e-01, 3.56119633e-01, 3.56119633e-01, 3.39020073e-01,
          2.93880165e-01, 3.55449021e-01, 1.92573667e-01, 3.55449021e-01,
          3.55449021e-01, 3.55449021e-01, 3.55449021e-01, 3.55449021e-01,
          2.12609038e-01, 3.97517979e-01, 3.97517979e-01, 3.97517979e-01,
          3.43512446e-01, 6.73350096e-02, 3.83806884e-01, 3.97517979e-01,
          2.21136689e-01, 3.45195591e-01, 3.45195591e-01, 3.45195591e-01,
          3.22509646e-01, 3.45195591e-01, 2.41699398e-01, 3.45195591e-01,
          3.45195591e-01, 3.45195591e-01, 3.62970114e-01, 3.36011767e-01,
          3.62970114e-01, 3.62970114e-01, 3.62970114e-01, 1.17715225e-01,
          2.81298637e-01, 3.62970114e-01, 3.62970114e-01, 2.86128521e-01,
          3.70256096e-01, 3.70256096e-01, 3.70256096e-01, 3.35168958e-01,
          5.26605807e-02, 3.37449342e-01, 3.70256096e-01, 3.70256096e-01,
          3.32778692e-01, 3.32778692e-01, 3.32778692e-01, 3.32778692e-01,
          3.32778692e-01, 3.32778692e-01, 3.32778692e-01, 3.32778692e-01,
          3.32778692e-01, 3.62970114e-01, 3.36011767e-01, 3.62970114e-01,
          3.62970114e-01, 3.62970114e-01, 1.17715225e-01, 2.81298637e-01,
          3.62970114e-01, 3.62970114e-01, 2.86128521e-01, 3.70256096e-01,
          3.70256096e-01, 3.70256096e-01, 3.35168958e-01, 5.26605807e-02,
          3.37449342e-01, 3.70256096e-01, 3.70256096e-01, 3.32778692e-01,
          3.32778692e-01, 3.32778692e-01, 3.32778692e-01, 3.32778692e-01,
          3.32778692e-01, 3.32778692e-01, 3.32778692e-01, 3.32778692e-01,
          3.37693661e-01, 3.37693661e-01, 3.37693661e-01, 3.37693661e-01,
          3.37693661e-01, 3.37693661e-01, 2.90395945e-01, 3.37693661e-01,
          3.37693661e-01, 3.63631576e-01, 3.63631576e-01, 3.63631576e-01,
          3.63631576e-01, 3.63631576e-01, 1.04509763e-01, 2.44640931e-01,
          3.63631576e-01, 3.63631576e-01, 2.37585604e-01, 2.94276893e-01,
          3.50164831e-01, 3.50164831e-01, 3.50164831e-01, 3.50164831e-01,
          3.50164831e-01, 3.50164831e-01, 3.43166411e-01, 3.29024494e-01,
          3.60069811e-01, 2.60005027e-01, 2.06497699e-01, 3.60069811e-01,
          3.60069811e-01, 3.60069811e-01, 3.60069811e-01, 3.60069811e-01,
          3.91329259e-01, 3.91329259e-01, 2.69990921e-01, 2.84831583e-01,
          3.91329259e-01, 3.91329259e-01, 3.91329259e-01, 2.19750524e-01,
          1.67580292e-01, 3.46126884e-01, 3.46126884e-01, 3.46126884e-01,
          3.46126884e-01, 3.46126884e-01, 3.46126884e-01, 3.46126884e-01,
          3.23700279e-01, 2.30506137e-01, 3.56119633e-01, 3.08322906e-01,
          3.56119633e-01, 3.56119633e-01, 3.56119633e-01, 1.16750047e-01,
          3.56119633e-01, 3.56119633e-01, 3.56119633e-01, 3.47933948e-01,
          1.67509541e-01, 3.47933948e-01, 3.47933948e-01, 3.47933948e-01,
          3.47933948e-01, 3.47933948e-01, 3.47933948e-01, 3.47933948e-01,
          2.11985409e-01, 2.32780322e-01, 3.68302941e-01, 3.68302941e-01,
          3.68302941e-01, 2.88640738e-01, 3.68302941e-01, 3.68302941e-01,
          3.68302941e-01, 3.45195591e-01, 3.45195591e-01, 3.45195591e-01,
          3.22509646e-01, 3.45195591e-01, 2.41699398e-01, 3.45195591e-01,
          3.45195591e-01, 3.45195591e-01, 3.92855614e-01, 2.34282970e-01,
          1.98862940e-01, 5.23029640e-02, 3.92855614e-01, 3.56689215e-01,
          3.92855614e-01, 3.92855614e-01, 3.92855614e-01, 3.47972900e-01,
          3.47972900e-01, 3.47972900e-01, 3.47972900e-01, 3.47972900e-01,
          2.04210937e-01, 3.27452630e-01, 3.47972900e-01, 3.47972900e-01,
          3.32778692e-01, 3.32778692e-01, 3.32778692e-01, 3.32778692e-01,
          3.32778692e-01, 3.32778692e-01, 3.32778692e-01, 3.32778692e-01,
          3.32778692e-01, 3.05430055e-01, 3.78692001e-01, 1.82485193e-01,
          9.58252773e-02, 3.78692001e-01, 3.78692001e-01, 3.78692001e-01,
          3.78692001e-01, 3.78692001e-01, 4.62354422e-01, 4.62354422e-01,
          1.40259668e-01, 6.45165518e-02, 2.50598162e-01, 4.62354422e-01,
          4.62354422e-01, 1.50792226e-01, 1.75847799e-01, 3.32778692e-01,
          3.32778692e-01, 3.32778692e-01, 3.32778692e-01, 3.32778692e-01,
          3.32778692e-01, 3.32778692e-01, 3.32778692e-01, 3.32778692e-01,
          3.05430055e-01, 3.78692001e-01, 1.82485193e-01, 9.58252773e-02,
          3.78692001e-01, 3.78692001e-01, 3.78692001e-01, 3.78692001e-01,
          3.78692001e-01, 4.62354422e-01, 4.62354422e-01, 1.40259668e-01,
          6.45165518e-02, 2.50598162e-01, 4.62354422e-01, 4.62354422e-01,
          1.50792226e-01, 1.75847799e-01, 2.37585604e-01, 2.94276893e-01,
          3.50164831e-01, 3.50164831e-01, 3.50164831e-01, 3.50164831e-01,
          3.50164831e-01, 3.50164831e-01, 3.43166411e-01, 3.32778692e-01,
          3.32778692e-01, 3.32778692e-01, 3.32778692e-01, 3.32778692e-01,
          3.32778692e-01, 3.32778692e-01, 3.32778692e-01, 3.32778692e-01,
          3.87347162e-01, 3.87347162e-01, 3.87347162e-01, 3.34753543e-01,
          3.87347162e-01, 3.87347162e-01, 3.21913660e-01, 1.34079158e-01,
